FANN_FLO_2.1
num_layers=4
learning_rate=0.700000
connection_rate=1.000000
network_type=0
learning_momentum=0.000000
training_algorithm=2
train_error_function=1
train_stop_function=0
cascade_output_change_fraction=0.010000
quickprop_decay=-0.000100
quickprop_mu=1.750000
rprop_increase_factor=1.200000
rprop_decrease_factor=0.500000
rprop_delta_min=0.000000
rprop_delta_max=50.000000
rprop_delta_zero=0.100000
cascade_output_stagnation_epochs=12
cascade_candidate_change_fraction=0.010000
cascade_candidate_stagnation_epochs=12
cascade_max_out_epochs=150
cascade_min_out_epochs=50
cascade_max_cand_epochs=150
cascade_min_cand_epochs=50
cascade_num_candidate_groups=2
bit_fail_limit=3.49999999999999977796e-01
cascade_candidate_limit=1.00000000000000000000e+03
cascade_weight_multiplier=4.00000000000000022204e-01
cascade_activation_functions_count=10
cascade_activation_functions=3 5 7 8 10 11 14 15 16 17 
cascade_activation_steepnesses_count=4
cascade_activation_steepnesses=2.50000000000000000000e-01 5.00000000000000000000e-01 7.50000000000000000000e-01 1.00000000000000000000e+00 
layer_sizes=11 21 13 2 
scale_included=0
neurons (num_inputs, activation_function, activation_steepness)=(0, 0, 0.00000000000000000000e+00) (0, 0, 0.00000000000000000000e+00) (0, 0, 0.00000000000000000000e+00) (0, 0, 0.00000000000000000000e+00) (0, 0, 0.00000000000000000000e+00) (0, 0, 0.00000000000000000000e+00) (0, 0, 0.00000000000000000000e+00) (0, 0, 0.00000000000000000000e+00) (0, 0, 0.00000000000000000000e+00) (0, 0, 0.00000000000000000000e+00) (0, 0, 0.00000000000000000000e+00) (11, 5, 5.00000000000000000000e-01) (11, 5, 5.00000000000000000000e-01) (11, 5, 5.00000000000000000000e-01) (11, 5, 5.00000000000000000000e-01) (11, 5, 5.00000000000000000000e-01) (11, 5, 5.00000000000000000000e-01) (11, 5, 5.00000000000000000000e-01) (11, 5, 5.00000000000000000000e-01) (11, 5, 5.00000000000000000000e-01) (11, 5, 5.00000000000000000000e-01) (11, 5, 5.00000000000000000000e-01) (11, 5, 5.00000000000000000000e-01) (11, 5, 5.00000000000000000000e-01) (11, 5, 5.00000000000000000000e-01) (11, 5, 5.00000000000000000000e-01) (11, 5, 5.00000000000000000000e-01) (11, 5, 5.00000000000000000000e-01) (11, 5, 5.00000000000000000000e-01) (11, 5, 5.00000000000000000000e-01) (11, 5, 5.00000000000000000000e-01) (0, 5, 0.00000000000000000000e+00) (21, 5, 5.00000000000000000000e-01) (21, 5, 5.00000000000000000000e-01) (21, 5, 5.00000000000000000000e-01) (21, 5, 5.00000000000000000000e-01) (21, 5, 5.00000000000000000000e-01) (21, 5, 5.00000000000000000000e-01) (21, 5, 5.00000000000000000000e-01) (21, 5, 5.00000000000000000000e-01) (21, 5, 5.00000000000000000000e-01) (21, 5, 5.00000000000000000000e-01) (21, 5, 5.00000000000000000000e-01) (21, 5, 5.00000000000000000000e-01) (0, 5, 0.00000000000000000000e+00) (13, 5, 5.00000000000000000000e-01) (0, 5, 0.00000000000000000000e+00) 
connections (connected_to_neuron, weight)=(0, 4.33814382745586168966e+00) (1, 9.02503322971147170506e+00) (2, 5.12246070959699739689e+00) (3, 8.17582054489878728987e+00) (4, 1.18364051565960330947e+01) (5, 1.37347644348319499841e+03) (6, 9.28127776222084222013e+00) (7, 7.02864137597703209082e+00) (8, 5.97931429105776945931e+00) (9, 7.13382516789400233925e-01) (10, 6.40059630510270860526e+00) (0, 1.34981160839966420895e+01) (1, 1.37106727714161245046e+01) (2, 1.04439177421587476857e+01) (3, 9.70060832967910791069e+00) (4, 3.18948636748497413862e+01) (5, 1.50000000000000000000e+03) (6, 6.82725751324796359398e+00) (7, 7.83537198121163935838e+00) (8, 1.02411908801535016522e+01) (9, 6.03237307405070133370e+00) (10, 6.74469581070172186088e+00) (0, -4.66394229166140261711e-01) (1, 5.85205126718066570568e-01) (2, 5.52091347425631817636e-01) (3, 8.95746698190000301132e-01) (4, -6.65682649849079655091e-01) (5, 1.97946595359281968252e-01) (6, 7.21359154693382298440e-01) (7, 9.82057937387080248648e-01) (8, 1.88169850438708180507e-01) (9, 1.90672905042425760991e-01) (10, 1.84592612800340849510e+00) (0, 5.71111178718430156920e+00) (1, 3.37974491470320259623e+00) (2, 5.87290726524649819851e+00) (3, 4.08114317877704202431e+00) (4, 8.85146040384108800936e+00) (5, 2.13074556274949600265e+00) (6, 5.29418507103515345591e+00) (7, 5.96486607364040288815e+00) (8, -1.50364447561570369061e+00) (9, 3.66591431776847098689e+00) (10, 4.83724110550616970272e+00) (0, -2.31856589179222555286e-01) (1, -3.85997803359706959103e-01) (2, -3.52129941703545223941e-01) (3, -4.00592526907549206783e-01) (4, 7.39383181445217085859e-01) (5, 3.75075163850647930186e-01) (6, -3.75065941913391154294e-01) (7, 8.80245017393468165423e-01) (8, 1.83724012914664752705e-01) (9, -3.23726626404834821882e-02) (10, 1.37640118107923692392e+00) (0, 7.14208854984561369861e+00) (1, 7.74146251641626204076e+00) (2, 6.25313300848450115410e+00) (3, 6.55315631769570305920e+00) (4, 6.93921636772457706144e+00) (5, 2.05986421287310434991e+02) (6, 4.95211347021636960619e+00) (7, 5.34178215151081747791e+00) (8, 7.89263275301641797910e+00) (9, 6.60585513005509028517e+00) (10, 8.39626849338915981491e+00) (0, 1.27894928198036286204e+01) (1, 2.69898801288408556331e+01) (2, 6.90131397542863034289e+00) (3, 7.54020258723363490105e+00) (4, 1.68547027637430666402e+01) (5, 1.50000000000000000000e+03) (6, 1.37150951095730864182e+01) (7, 8.71290453878539317145e+00) (8, 3.66373655786586738259e+01) (9, 6.15087831232898896161e+00) (10, 6.70625204832449917092e+00) (0, 4.65383336400094371754e+00) (1, 4.95563575337049201153e+02) (2, 1.00177670420163575926e+01) (3, 4.09063987852433257331e+01) (4, 9.23041482674657117968e+02) (5, 1.50000000000000000000e+03) (6, 1.87454630385390856873e+02) (7, 5.77311446895407129887e+02) (8, 8.35560556977584155902e+02) (9, 5.63159033858114543847e+00) (10, 7.29041992712134589993e+00) (0, 4.09620251905426968619e+00) (1, 1.67992755459689178110e+01) (2, 5.48455072663181830706e+00) (3, 5.33007147562653749162e+00) (4, 6.54911222889357969024e+00) (5, 1.50000000000000000000e+03) (6, 8.85785887803941740515e+00) (7, 7.44420900531710394432e+00) (8, 1.19399598072412480576e+01) (9, 4.99614403626657832547e+00) (10, 6.42171860577695241545e+00) (0, 3.94466669169666883654e-01) (1, -4.85336582338000033232e-01) (2, 6.27899038084693650319e+00) (3, 2.99429928073794093812e-01) (4, 7.45863718826830002229e-01) (5, 4.49115336775080553622e+00) (6, -2.88574920571350457266e+00) (7, -5.47210989918779411312e+00) (8, -3.29879360304896218636e+00) (9, 8.43476195060126388015e-01) (10, 2.41514737385601163666e+00) (0, 1.08884800711185967259e+01) (1, 1.76836995443294853203e+00) (2, -1.44379114540806003930e+01) (3, 7.93533651680190299516e-01) (4, 4.29587714931183128897e+00) (5, -6.51036556654227194230e+00) (6, 4.63056734680714843222e-01) (7, -2.90985735288136915244e+00) (8, 5.64075128225784183655e+00) (9, -4.08235592540496057268e+01) (10, 3.28435668251528101180e+00) (0, 1.17542130868881189443e+00) (1, 2.37321613389816299389e+00) (2, -2.69789621099621257372e+00) (3, 1.79253040437953381492e+00) (4, -1.62645603019155093882e+00) (5, -1.01438029440589243535e+01) (6, -3.74205770041912000323e+00) (7, -5.60307823513450209418e+00) (8, -3.90079055866806623243e+00) (9, 1.87332215515451245835e+01) (10, 8.89112447242234482658e-01) (0, 9.36101955150769438063e-01) (1, -3.52460154380560386489e-01) (2, -3.55939260007273328146e-01) (3, 7.84784606977040777309e-01) (4, 7.09188694345761261317e-01) (5, 3.22264779671738776923e-01) (6, -3.19605656382904446122e-01) (7, 1.40444610077428533312e-01) (8, 1.73767472490867935786e-01) (9, 2.30376739841154920541e-01) (10, 1.57368745960744749190e+00) (0, 7.03224507443001645157e+00) (1, 8.63022582193156040375e+00) (2, 8.19005840633026060971e+00) (3, 7.14311720449239029307e+00) (4, 2.01951798447643282586e+00) (5, 2.49931320653005650811e+00) (6, 8.87370906016715532694e-01) (7, 5.85306284016464406506e+00) (8, 7.70652702143368717458e+00) (9, 4.10744354756406526707e-01) (10, 5.16412373271498825744e+00) (0, -1.37310106854330038484e-01) (1, 5.38307712159424411880e-01) (2, -2.30203633501625226643e+00) (3, -1.63147202524142231894e+00) (4, -2.47327335090536698514e-01) (5, -1.48099932697699609996e+00) (6, 1.20830471501327543771e-01) (7, 8.37831278731392736780e-01) (8, 2.59978073608310489284e-01) (9, -7.19176735296848335111e+00) (10, 1.89728225330664912462e+00) (0, -2.89596469947924650690e-01) (1, 2.56811080132094970985e-01) (2, 9.42603370423587327842e-01) (3, -4.63321798658128392034e-01) (4, -9.13464353796302752642e-01) (5, -2.49010302354892264221e-02) (6, 3.24628668115440333075e-01) (7, -1.26110126517851406369e+00) (8, -3.76982634519553494457e-01) (9, -4.61684795696186422997e-01) (10, 1.68771261740499656234e+00) (0, 6.38255199759641200785e+00) (1, 5.06739783995182833110e+01) (2, 8.78134325853754837965e+00) (3, 6.54550887614170218143e+00) (4, 4.47093243490321441413e+01) (5, 1.50000000000000000000e+03) (6, 6.81520759137381730852e+01) (7, 9.90190138675527720125e+00) (8, 2.98452676078962895190e+02) (9, 9.17442649392253528617e+00) (10, 5.09335807516271543705e+00) (0, 6.85519964518298152711e+00) (1, 1.36458281934873042474e+01) (2, 8.19695587818524273871e+00) (3, 2.03521296708153158761e+01) (4, 1.50000000000000000000e+03) (5, 1.50000000000000000000e+03) (6, 5.02864958173090315086e+01) (7, 1.14776441675257334651e+01) (8, 8.42689190880693786312e+02) (9, 1.66058116084837408266e+01) (10, 7.13637578215989165642e+00) (0, 1.24743092737460319341e+01) (1, 9.36880652875843722427e+00) (2, 1.10953857772336821341e+01) (3, 1.49723178448377431948e+01) (4, 4.56724156751737737636e+01) (5, 1.50000000000000000000e+03) (6, 2.48707674196275725365e+01) (7, 7.96413203063430596984e+00) (8, 1.82726702262526465859e+01) (9, 5.43572167575595965872e+00) (10, 7.55057222387552595677e+00) (0, 4.00778043756005875053e+00) (1, 3.20357839239278376908e+01) (2, 5.14041904098803126288e+00) (3, 5.68965089671075041622e+00) (4, 3.48259013856353094596e+00) (5, 1.50000000000000000000e+03) (6, 8.06762837317993053432e+00) (7, -1.54760120146703328281e+00) (8, 1.31167914301782184694e+00) (9, 4.87648353633448561339e+00) (10, 5.76259043009958293879e+00) (11, 4.14645171544957419352e-02) (12, 1.59860510411216572013e-01) (13, 1.14295824598744455436e+00) (14, 2.67286960251123195675e-01) (15, -3.03341273018570223297e-01) (16, 1.31487969331759851910e-01) (17, 1.31338192527018920996e-01) (18, 2.46794865514480321611e-01) (19, 2.41963641338609397602e-01) (20, 1.32377332191638341641e+00) (21, -5.48502281529498314505e-01) (22, 7.01241962727207845951e-01) (23, -6.74457583846643116132e-01) (24, 1.89441478354125704409e-02) (25, 1.32693442710365649972e+00) (26, 1.55571469045883281623e+00) (27, 1.80039527415005368161e-01) (28, 6.10498637615933481548e-01) (29, 2.72954192105921866762e-01) (30, 4.56644106582956982310e-02) (31, 1.88867561304019160318e+00) (11, -1.58269899419066578661e-01) (12, -2.83142196521064648529e-01) (13, 7.55169499154518919504e-01) (14, -2.20525963038091105117e-01) (15, 7.58420247331283770009e-01) (16, -2.86279614159987261246e-01) (17, -2.75176820793344434346e-01) (18, -1.90170021286038937181e-01) (19, -3.85944457303333821052e-01) (20, 8.75864891147148383332e-01) (21, -6.33228832958390996932e-02) (22, -1.95087189487312739899e-01) (23, 5.35874182443171753754e-01) (24, -1.86250610043046493924e-01) (25, 4.22257567004053813164e-01) (26, -2.05744741253404611614e-01) (27, -2.46910334222123606374e-01) (28, -2.70114936399833249769e-01) (29, -3.20690975460141414199e-01) (30, -2.15957769355793111066e-01) (31, 1.14060021781182729939e+00) (11, -5.12732918039032314894e-01) (12, -4.68275732033010760880e-01) (13, 5.81494525005677442842e-01) (14, -4.01452849634836295145e-01) (15, 3.46346902575825288384e-01) (16, -4.14383091492701305381e-01) (17, -5.70243132208415492990e-01) (18, -5.01868702074893646703e-01) (19, -6.49835544000535447751e-01) (20, -4.73877964868338275028e-01) (21, 1.31751404170804831129e-01) (22, -7.18965784729730938984e-02) (23, 1.96576288270075644204e-01) (24, -4.66860985623538615741e-01) (25, -1.09814558498611436477e-01) (26, 5.31243490844301335940e-01) (27, -5.48050004822380865122e-01) (28, -5.54646554495603183454e-01) (29, -4.94497792957911463940e-01) (30, -5.29614279373866292389e-01) (31, 8.49115710768239551065e-01) (11, 7.36795516430016755871e-02) (12, 2.70690974911814263848e-01) (13, 1.11514112500160234021e+00) (14, 1.68815145922867282380e-01) (15, -6.93605294444596953696e-02) (16, 3.80504389838911272204e-01) (17, 4.06036122664373444469e-01) (18, 4.40792436403327325678e-01) (19, 4.75730469060037519657e-02) (20, 1.09400677557281933439e+00) (21, -2.83866262158692039819e-01) (22, 7.65617000416707438326e-01) (23, -3.62273290420609350715e-01) (24, 1.53203297624436157731e-01) (25, 1.25003853185939894921e+00) (26, 1.33422353266233550961e+00) (27, -1.18147232334835233791e-01) (28, 5.36431908483543051780e-01) (29, 2.23512968258226696339e-01) (30, 2.22759464089270470266e-01) (31, 2.07325957703713559255e+00) (11, -3.69778108133081262476e-01) (12, -3.33687707592144111590e-01) (13, 8.10690345534011869155e-01) (14, -3.90745886352247384643e-01) (15, 5.10044018492370798690e-01) (16, -3.03231648673141895856e-01) (17, -1.92589926419163365301e-01) (18, -2.13580263993722180293e-01) (19, -4.25753463434305756685e-01) (20, 4.74140055819701367046e-01) (21, 1.34253431613992557647e-01) (22, 5.51643208867524603711e-01) (23, 2.28281123969046290112e-01) (24, -2.50273036540282045603e-01) (25, 1.56406596636157829705e-01) (26, 8.98759336459011959342e-01) (27, -2.55473436162236611224e-01) (28, -3.70561209373959754565e-01) (29, -2.60115614777077341913e-01) (30, -3.08801406650824339373e-01) (31, 1.13214577760036050336e+00) (11, -1.42367860583342137337e-01) (12, -9.00903196019249702386e-02) (13, -2.37250632070001243878e-01) (14, 1.16343327451466249656e-01) (15, 6.02825287528597097975e-01) (16, -3.88863406581553272545e-02) (17, -1.78173897406361725002e-03) (18, -1.09641333846928146212e-01) (19, -2.11287664814833103799e-01) (20, -9.51559951293399874928e-01) (21, -4.56829280250885122472e-02) (22, -1.98196246593862396290e-01) (23, 4.51829651859550651682e-01) (24, -2.44262271361108146417e-01) (25, -3.74029418311643047090e-01) (26, 8.84354648993520564559e-01) (27, -1.49405731763560312153e-01) (28, -8.66947631413033242831e-02) (29, -1.58125964031912737140e-02) (30, -3.63378644681273565986e-01) (31, 1.29064460058983687674e+00) (11, 1.74076345232966622767e+00) (12, 1.84425727085007373773e+00) (13, 7.67718270861307283681e-01) (14, 1.82442109317805800650e+00) (15, 1.00054114883305134143e+00) (16, 1.95314094296283591312e+00) (17, 1.98100617192202643757e+00) (18, 1.93653999922316488735e+00) (19, 1.32542901087146036687e+00) (20, 2.54434483890249696358e+00) (21, 1.09543688878311074042e+00) (22, 2.23461257834016757684e+00) (23, 1.05453479943951577980e+00) (24, 1.80750000804177890501e+00) (25, 2.00268558683548159038e+00) (26, 3.31598286462597258151e-01) (27, 1.60191689382729318680e+00) (28, 1.28937249787050706162e-01) (29, 1.81878041675648316478e+00) (30, 1.70454127730001947505e+00) (31, 1.52348815269272241935e+00) (11, 1.47421199976891026395e+00) (12, 1.50233653178400694550e+00) (13, 2.49996823531174916511e+00) (14, 1.33993867929750565260e+00) (15, 1.06298048048654281139e+00) (16, 1.39132266384632985456e+00) (17, 1.36646506776560072716e+00) (18, 1.42031946801877428932e+00) (19, 1.63597374594426692163e+00) (20, 1.54365775053725258203e+01) (21, -3.50457975256139917519e+01) (22, 7.91048458937963716586e-01) (23, 8.45483982584310456154e-01) (24, 1.41243119133281647137e+00) (25, 3.00689684559884273796e+00) (26, 2.84920984361492202197e+00) (27, 1.48398274817645114965e+00) (28, 1.99555326631580642882e+00) (29, 1.59211237172102149096e+00) (30, 1.34721925543568410433e+00) (31, 3.11725380948109886958e+00) (11, 2.26332772404130744270e-01) (12, 3.55707903342319164963e-01) (13, 1.08741167893419743429e+00) (14, 1.94653249385943749594e-01) (15, -3.37729756816400716879e-01) (16, 2.69282359458948017394e-01) (17, 2.99578026178186962447e-01) (18, 2.44946788978945784176e-01) (19, 2.51216082104642413064e-01) (20, 9.22927293025808226368e-01) (21, -7.03711943859356314768e-01) (22, 9.76779714992620506919e-01) (23, -4.92201985123226715135e-01) (24, 1.36591521130356968738e-01) (25, 1.31688905885732032708e+00) (26, 1.39869053645589969115e+00) (27, 1.84748878646450759300e-01) (28, 7.86035317397159594144e-01) (29, 3.82207459771635338353e-01) (30, 1.55297701862477099954e-01) (31, 2.00024933625783019053e+00) (11, -5.35896564702629363275e-01) (12, -4.81746694687578358440e-01) (13, 5.05897727172270439411e-01) (14, -4.55708813390847622404e-01) (15, 4.79592885521905210044e-01) (16, -4.32077868703438727760e-01) (17, -4.75520985483940450411e-01) (18, -4.81301804131624266780e-01) (19, -5.53836613945366207368e-01) (20, -9.21598956740821151357e-01) (21, 2.07097932583190064149e-01) (22, -5.04833039138931627399e-02) (23, 2.09806970604301451511e-01) (24, -4.21994846536138112914e-01) (25, -1.14971524319735854403e-01) (26, 7.31462937812067615084e-01) (27, -5.81289913748492148571e-01) (28, -6.00977460546320618739e-01) (29, -4.12209881012989554083e-01) (30, -5.46573858375137833221e-01) (31, 8.78287737911245258715e-01) (11, 2.19871277151255123394e-01) (12, 2.79968040124994821394e-01) (13, 1.13108758492313365984e+00) (14, 1.77364044498669132244e-01) (15, -2.08957639954550522532e-01) (16, 2.72523216726423156420e-01) (17, 4.07241818172325964476e-01) (18, 4.20408666402230790649e-01) (19, 1.85242774591929698635e-01) (20, 1.10289581202841913132e+00) (21, -3.59553864833008829383e-01) (22, 7.28022926560690453179e-01) (23, -2.93444419326448324714e-01) (24, 2.47497864401360789799e-01) (25, 1.10172810439685497919e+00) (26, 1.37342074786158385713e+00) (27, -1.35128475440640466454e-01) (28, 6.38149561020677436041e-01) (29, 1.61021493599873194436e-01) (30, 8.24564582559991210431e-02) (31, 2.02029658421439028970e+00) (11, 4.54256609053358229033e+00) (12, 3.58322779472743890850e+00) (13, 5.18858930888769709355e+00) (14, 4.33039997587140135238e+00) (15, 4.70303404087129006683e+00) (16, 3.49475007519438918280e+00) (17, 3.62175290841919483853e+00) (18, 3.49498098543193291832e+00) (19, 3.97279926160176843908e+00) (20, 4.54871002587412665008e+00) (21, -1.16400198969636381463e+00) (22, 2.74620784674781726054e+00) (23, 5.27901007292191160047e+00) (24, 3.64002165236530306203e+00) (25, 4.46985338031474288556e+00) (26, 4.70325550306801076772e+00) (27, 3.43170643911116490798e+00) (28, 3.16730614867828563774e+00) (29, 3.12258824937237200459e+00) (30, 4.60173031438049928710e+00) (31, 3.82116713671013297215e+00) (32, 1.63135152182288067912e+00) (33, 4.36373184409130399075e+00) (34, 4.78013717166649954038e+00) (35, 1.57150523817049814213e+00) (36, 4.54802640996427864906e+00) (37, 6.43536286481653263536e+00) (38, 1.17719250225335181348e+00) (39, 1.41678072463675741588e+00) (40, 1.76385221261857472186e+00) (41, 6.30247968336781649867e+00) (42, 1.58156414353446006515e+00) (43, -2.97159201912711515292e-02) (44, 1.92566553745040613954e+00) 
