FANN_FLO_2.1
num_layers=4
learning_rate=0.700000
connection_rate=1.000000
network_type=0
learning_momentum=0.000000
training_algorithm=2
train_error_function=1
train_stop_function=0
cascade_output_change_fraction=0.010000
quickprop_decay=-0.000100
quickprop_mu=1.750000
rprop_increase_factor=1.200000
rprop_decrease_factor=0.500000
rprop_delta_min=0.000000
rprop_delta_max=50.000000
rprop_delta_zero=0.100000
cascade_output_stagnation_epochs=12
cascade_candidate_change_fraction=0.010000
cascade_candidate_stagnation_epochs=12
cascade_max_out_epochs=150
cascade_min_out_epochs=50
cascade_max_cand_epochs=150
cascade_min_cand_epochs=50
cascade_num_candidate_groups=2
bit_fail_limit=3.49999999999999977796e-01
cascade_candidate_limit=1.00000000000000000000e+03
cascade_weight_multiplier=4.00000000000000022204e-01
cascade_activation_functions_count=10
cascade_activation_functions=3 5 7 8 10 11 14 15 16 17 
cascade_activation_steepnesses_count=4
cascade_activation_steepnesses=2.50000000000000000000e-01 5.00000000000000000000e-01 7.50000000000000000000e-01 1.00000000000000000000e+00 
layer_sizes=11 21 13 2 
scale_included=0
neurons (num_inputs, activation_function, activation_steepness)=(0, 0, 0.00000000000000000000e+00) (0, 0, 0.00000000000000000000e+00) (0, 0, 0.00000000000000000000e+00) (0, 0, 0.00000000000000000000e+00) (0, 0, 0.00000000000000000000e+00) (0, 0, 0.00000000000000000000e+00) (0, 0, 0.00000000000000000000e+00) (0, 0, 0.00000000000000000000e+00) (0, 0, 0.00000000000000000000e+00) (0, 0, 0.00000000000000000000e+00) (0, 0, 0.00000000000000000000e+00) (11, 5, 5.00000000000000000000e-01) (11, 5, 5.00000000000000000000e-01) (11, 5, 5.00000000000000000000e-01) (11, 5, 5.00000000000000000000e-01) (11, 5, 5.00000000000000000000e-01) (11, 5, 5.00000000000000000000e-01) (11, 5, 5.00000000000000000000e-01) (11, 5, 5.00000000000000000000e-01) (11, 5, 5.00000000000000000000e-01) (11, 5, 5.00000000000000000000e-01) (11, 5, 5.00000000000000000000e-01) (11, 5, 5.00000000000000000000e-01) (11, 5, 5.00000000000000000000e-01) (11, 5, 5.00000000000000000000e-01) (11, 5, 5.00000000000000000000e-01) (11, 5, 5.00000000000000000000e-01) (11, 5, 5.00000000000000000000e-01) (11, 5, 5.00000000000000000000e-01) (11, 5, 5.00000000000000000000e-01) (11, 5, 5.00000000000000000000e-01) (0, 5, 0.00000000000000000000e+00) (21, 5, 5.00000000000000000000e-01) (21, 5, 5.00000000000000000000e-01) (21, 5, 5.00000000000000000000e-01) (21, 5, 5.00000000000000000000e-01) (21, 5, 5.00000000000000000000e-01) (21, 5, 5.00000000000000000000e-01) (21, 5, 5.00000000000000000000e-01) (21, 5, 5.00000000000000000000e-01) (21, 5, 5.00000000000000000000e-01) (21, 5, 5.00000000000000000000e-01) (21, 5, 5.00000000000000000000e-01) (21, 5, 5.00000000000000000000e-01) (0, 5, 0.00000000000000000000e+00) (13, 5, 5.00000000000000000000e-01) (0, 5, 0.00000000000000000000e+00) 
connections (connected_to_neuron, weight)=(0, -7.70466514085920817223e-01) (1, 2.62398184222379748931e+00) (2, -1.97222680409017292469e+00) (3, -2.99710058973276094463e+00) (4, 2.10482284645701872572e-01) (5, -1.27781258747629444805e+00) (6, 3.95911860967861573002e+00) (7, 2.84397388123472083521e+00) (8, 2.59385885474626487479e+00) (9, 1.26562302782376012722e-01) (10, 1.21137643233244296503e+00) (0, 1.71224229675040251486e+00) (1, 3.87987761554152377208e-01) (2, 8.20181894290287205607e-01) (3, 8.66724522970900745911e-01) (4, 7.44603617059288458435e-01) (5, 4.26172239944719755123e-01) (6, -2.35911439029506481146e-01) (7, 8.91275862792161532866e-01) (8, 4.82174230877364273784e-01) (9, -1.97469038214441755530e-01) (10, -2.51447581015422305661e-01) (0, -1.05193502173608122163e+00) (1, 1.00508649058844556912e+00) (2, -3.79053687952737083933e-01) (3, -1.43548320516675853575e+00) (4, -1.01857330390115685681e+00) (5, 2.61828263334248356742e+00) (6, -2.01055150040623109575e+00) (7, -5.48742360473982393465e-01) (8, 1.74727949069081356370e+00) (9, 1.03506053322752133994e+00) (10, -5.79483957435299568139e-01) (0, 6.74693187900394897305e-01) (1, 8.27263210038653773459e-01) (2, -4.64906939255740780936e-01) (3, -3.49866468306297306867e-01) (4, 1.10097724574800936992e+00) (5, 1.68475045943896728495e+00) (6, 1.02730893463617389827e+00) (7, 1.55270281079105632038e+00) (8, 6.36598908791807915897e-01) (9, -6.41824233524382337102e-01) (10, 1.08022373520057990426e+00) (0, 3.63274909032624604421e-01) (1, 9.34885905553852314398e-01) (2, 1.32809242149669515243e+00) (3, 4.53713636367903572211e-01) (4, -2.01596812847394391000e-02) (5, -1.67708057730930404361e+00) (6, 1.37522182499333123218e-01) (7, 1.14009415469377400898e-01) (8, -2.13490936033584634279e-02) (9, -4.51118839077280509020e-01) (10, -7.84685782998035930014e-01) (0, 2.27507134446148923113e-01) (1, -6.91785328530693077731e-01) (2, -6.48315624539516965896e-01) (3, -7.70937354545355724156e-02) (4, 1.00375698362069409875e+00) (5, 1.03757226502468791196e+00) (6, 1.32005175878647573739e+00) (7, -8.85278585134305018300e-01) (8, -1.03972784217195676759e-01) (9, -2.10769457491417899764e-01) (10, 1.87090687144132600261e-01) (0, -4.41207226629581157340e+01) (1, 8.53571513550796794334e+01) (2, -7.56886345124352999392e+01) (3, 5.24545824965476441548e+01) (4, -8.31788887976365920451e+00) (5, 6.73228530886439191505e+00) (6, 9.10254274423597742327e+00) (7, 1.87915746672603461320e+02) (8, 6.07732841811151871525e+01) (9, -1.93825196263320947310e+02) (10, 1.69076730399077987954e+01) (0, 8.14679646940424606605e-01) (1, -1.90287253485799556785e-01) (2, 3.69942395996757711352e-01) (3, -3.04320953060898569120e-01) (4, 3.97497804940823817876e-01) (5, 1.25120942050105710130e+00) (6, -2.66116884241696605162e-01) (7, -6.20594823381204863111e-01) (8, -1.14587984109215734740e+00) (9, -2.10198260892215804674e+00) (10, -6.52860101357722211191e-01) (0, -9.28667386811075346031e+01) (1, -3.86784328994692572223e+01) (2, 6.71204641816213509742e+00) (3, -1.56862579331700979779e+00) (4, 2.16491158460711602629e+02) (5, -1.09043972167400085027e+01) (6, 1.72291430967129386431e+01) (7, 3.02480668485613746199e+00) (8, 6.18405638207161700848e+00) (9, 4.45867070091529456022e+01) (10, -5.61250315978680180962e+00) (0, 7.47689332095439862513e-01) (1, 8.53527785783863568447e-01) (2, 1.64395474796430640652e+00) (3, 7.67546206761968941024e-01) (4, 4.87771538444819532931e-02) (5, 5.09011641333939390819e-01) (6, -1.07230067377879781376e-01) (7, 1.75897780089185640229e+00) (8, -2.43385842398609920922e-02) (9, -9.28243694773149941035e-01) (10, 1.20152773562262740747e-01) (0, -3.08465816040796536601e-01) (1, 4.23607417013468090516e+00) (2, 2.04512700803297031715e-01) (3, 2.51517208786605150905e+00) (4, 1.28744752584219179781e+00) (5, 1.58115209638035580930e+00) (6, 9.59478149029672100490e-01) (7, 1.41566392768372595334e+00) (8, -4.09238205935296861515e-01) (9, 5.57532249118293798951e-01) (10, 1.72009297461305599164e+00) (0, -2.37599668150780241049e+00) (1, -2.45217401602195872456e+00) (2, 5.88946962222053116420e-01) (3, 1.47807661706875981267e+00) (4, 3.43989346651355665241e-01) (5, -7.13523332977493374152e-01) (6, 5.28522979808393800205e-01) (7, -4.54270261301406819143e+00) (8, -8.86565767571022789184e+00) (9, -8.31806246184750075479e-01) (10, -8.45046371287965669694e-01) (0, 6.42441757016251835388e-01) (1, 3.14170696549623762461e-01) (2, -6.47784815333422719918e-02) (3, -2.93266774479696047673e-02) (4, -1.73269897432092617739e-01) (5, 1.38219265075672192999e+00) (6, -3.85632775871270672141e+00) (7, 9.03706683837485980071e-01) (8, -2.13716287382121716831e+00) (9, -1.56659686550642440750e+00) (10, -5.11429909881271460570e-01) (0, -6.15883700040199357773e+01) (1, 6.50167425257135391803e+01) (2, -1.20218909135104752295e+02) (3, 8.66025711714257226959e+01) (4, -2.11605718832171376675e+01) (5, -1.00607984052867337255e+02) (6, -8.38921486700212426513e+01) (7, 8.90909109037537945142e+01) (8, 5.43783070928266027977e+01) (9, 3.73640323884028617840e+01) (10, -9.50067953807977143288e-03) (0, 1.48444166547113422894e+03) (1, 2.86391550786829469644e+01) (2, 1.03963927097526163124e+01) (3, -4.02749742857045134770e+02) (4, -2.19615364247148434629e+01) (5, 4.17114596678916427663e+02) (6, -9.62220479682089603557e+02) (7, 1.42423774256552803763e+02) (8, 4.32040086951217858768e+02) (9, 7.17156302063633461330e+02) (10, -1.68902836727456956423e-01) (0, -7.86016886420324079054e-01) (1, -4.59384897213002740823e-01) (2, -3.22313525862881355977e+00) (3, -3.34931903076109760420e+00) (4, -2.08030248373892812097e+00) (5, -2.08101735935992593340e+00) (6, 1.72434720025328647175e+00) (7, 2.35859405312360292939e+00) (8, 6.02285086825771198704e+00) (9, 9.59441648432730387341e-01) (10, 2.05883779249812670642e+00) (0, 6.68369206363578456376e+01) (1, -5.30022610245822889397e+00) (2, 1.92837110455189773006e+01) (3, -2.30877882151004634181e+01) (4, -1.29895321411541345924e+02) (5, 4.75848961832125105786e+00) (6, -8.84145046361129871570e+00) (7, -3.26076143469832757660e+01) (8, -4.21613225983470218949e+00) (9, -2.95011268304014464547e+01) (10, 8.09379932269429325231e+00) (0, 3.90991083363251306082e+01) (1, 1.75264358367296644303e+01) (2, -5.26847626949816572051e+00) (3, 1.32807784380041169925e+02) (4, 3.46246405007544737487e+01) (5, -1.48927636166159857112e+02) (6, 2.02236479523543621895e+01) (7, 1.17998948125346281302e+01) (8, -1.42346256124838788537e+02) (9, 9.65258733305711444928e+01) (10, 9.82054161022612959187e+00) (0, -1.41973614121954139211e-01) (1, -6.93417453777857595298e+00) (2, 2.42853946675500198538e+00) (3, -6.53546320428609739395e+00) (4, -3.89586581316837188282e+00) (5, -1.70089310486620326479e+00) (6, 2.50074760332487988634e+00) (7, 3.91998204550305251459e+00) (8, 1.08870799317282607177e+01) (9, -1.14350412743380847047e+00) (10, 2.41818741035122863892e+00) (0, -1.24370430861800986833e+01) (1, 2.58287888185281311326e-01) (2, -1.17831258581370299510e+01) (3, 6.75991161558941744403e+00) (4, 1.73312183066553266997e+01) (5, 2.14887604124519988602e+01) (6, -2.23841154034430296349e+01) (7, -2.29185985463727988076e+01) (8, -2.67694333912043695989e+01) (9, 2.13082729376816963907e+01) (10, -4.33000315214507186523e-02) (11, 2.25977912875673281334e+00) (12, 2.52601008080163280667e+00) (13, 6.14972324043985274500e-01) (14, -1.05476307992723977724e-01) (15, -6.73761212410938448159e-01) (16, 7.32758755028469654924e-01) (17, -5.63339144570582317506e-01) (18, 6.01967810348344745108e+00) (19, 1.26870631160300129103e+00) (20, 2.48501576126815715284e+00) (21, 2.28671379825859766299e+00) (22, 5.51363564600094502310e-01) (23, 2.46361131822982448725e+00) (24, 1.04047589118448424728e+00) (25, 3.34412254778900075447e-01) (26, -6.50624857748008239566e-02) (27, 1.58780632764115137157e+00) (28, 4.06819055695434472764e-01) (29, -1.09578377370679858060e+00) (30, 9.30070266095363029635e-01) (31, 1.99263070118805418751e+00) (11, -1.07839630091770288800e+00) (12, 1.07839843512055402752e-01) (13, -1.12825168979107881562e-01) (14, -2.12313051379104389405e-01) (15, 3.67768511095194206018e-01) (16, -9.24975235109267268641e-01) (17, 1.89306886136329444170e+00) (18, -5.86306874095347985154e-01) (19, 1.18596755163521327958e+00) (20, -1.03858790518288598981e-01) (21, -3.80210173771634629691e-01) (22, 1.18302362152722850830e+00) (23, 3.30371083704343981857e-01) (24, 2.22569747094844005986e+00) (25, 2.13810162880713905409e+00) (26, -5.16989191718878582371e-01) (27, 7.62857241334450653092e-01) (28, 1.65027789742774239068e-01) (29, 8.07406004241873698213e-01) (30, 1.42171152335991735072e+00) (31, -1.60127050361206141327e-01) (11, -4.32463571717517647475e-01) (12, 3.03805538571544297977e-01) (13, -3.46273260958985695801e-01) (14, 1.89807740433231497690e+00) (15, 2.25680749267815183856e+00) (16, 3.38767278169301022661e-02) (17, -4.34177128386293353923e-01) (18, -2.55781493322432607052e-01) (19, 1.53495702399541550376e-01) (20, 2.02073617284366208180e-01) (21, -1.02219627302515592149e+00) (22, 1.19546040966576705422e+00) (23, -3.50253742029587200602e-01) (24, 1.72945685587097164326e-01) (25, -3.01944051699489568463e-01) (26, 1.49390487688200224170e+00) (27, 1.68818388348111636521e-01) (28, -3.57777488661157327954e-01) (29, -4.67140016612235697835e-01) (30, 3.29131432268578216771e-01) (31, -9.18489185322786672039e-01) (11, 2.08254933054054891528e+00) (12, 3.27534838981627585142e+00) (13, 4.68021674244072549698e+00) (14, 1.73147827900147288638e+00) (15, -4.44582790136495153988e-01) (16, 1.01946896615467363922e+00) (17, 5.55827129985001500145e-01) (18, 1.12016150092664590332e+00) (19, 1.28424846257827907081e+00) (20, 1.16580142440433531803e+00) (21, 1.70931204323019847457e+00) (22, 1.94754011621994349568e+00) (23, 3.66475834369026975956e-01) (24, -9.87749803814758187137e-01) (25, -2.07555880761834038450e-01) (26, 7.05590748222433616910e-01) (27, -2.48928382017165628071e+00) (28, 1.90009786804882807587e+00) (29, 3.86209918108957550587e-01) (30, 1.35805194476058965769e+00) (31, 1.78884043315850260747e+00) (11, -4.98829264711021791445e-01) (12, 5.23608889585755465923e-01) (13, -1.62157821720449479841e+00) (14, 1.22236659502042388503e+00) (15, 2.12089892567997839734e+00) (16, 5.36363974345097985208e-02) (17, 1.47723085134212106517e+00) (18, -3.86440819495810172768e+00) (19, 7.99897226843935937879e-01) (20, -1.75332561455445283538e-02) (21, -9.22263427792214485201e-01) (22, 2.30605012104892459490e+00) (23, 2.44011101774870020620e+00) (24, 2.72082218543631459973e-01) (25, 6.45267678930148136374e-01) (26, 1.13768363943261813231e-01) (27, 3.68763050544326453917e-01) (28, 1.17391149743893863366e+00) (29, -1.98890879539477216653e+00) (30, 9.72816636614856622423e-01) (31, -8.42959563463854477661e-01) (11, -6.34970866966214769755e-02) (12, 2.82677698812321631650e+00) (13, 1.53631612740416190199e+00) (14, 8.39224844377043810439e-01) (15, -9.20224027950239165108e-01) (16, -1.30562224702537332810e+00) (17, -5.42751230500545189805e-01) (18, -9.04108597704898625524e-02) (19, -1.24836212113851030558e+00) (20, 2.60158318447130687545e+00) (21, 1.42246586232591476495e+00) (22, 1.96755153179698782928e+00) (23, 5.16271913722895381404e-01) (24, -5.49893550283453214078e-01) (25, 5.91424216510225697618e-01) (26, -2.56143599055382087393e-01) (27, 4.87829970618343600197e-01) (28, -2.14825182648403251173e-01) (29, 1.68274052153686781708e+00) (30, 1.51334167022297627625e+00) (31, 2.10161989539884874745e+00) (11, 2.53093984673312100142e+00) (12, 2.28119555571452048426e+00) (13, 1.63647520993930495337e+00) (14, 9.27245364889179413126e-01) (15, -8.67854057852466831413e-01) (16, 8.18136817814458128240e-01) (17, 2.05414410008412151587e-01) (18, 1.64013032120951796067e+00) (19, 1.84879967280931201135e-01) (20, 1.28957622790234371912e+00) (21, 1.47719721610623455632e+00) (22, 1.84813886017471173950e+00) (23, 5.18987626243553670791e-02) (24, -2.72376896077674457430e-01) (25, -7.31676605485419684349e-01) (26, 2.08178749864891177168e+00) (27, -3.44891886371247874399e-02) (28, 9.49262649770209243627e-01) (29, 1.66756103735565530677e+00) (30, -2.55612134064326479432e+00) (31, 1.32893689529749403633e+00) (11, 2.45807432718533735994e+00) (12, 2.67288709622929809839e+00) (13, 1.52489544525177400658e+00) (14, -5.99774163750086852787e+00) (15, -7.57947922205730928447e-01) (16, 2.00844043059107990601e+00) (17, 7.85474626726553992739e-01) (18, 2.25661756188540563173e+00) (19, -8.64853893052204503178e-01) (20, 2.83132851351599335032e+00) (21, -2.43116310110959576996e-01) (22, 1.88067838746834148367e+00) (23, 6.46599726265102286993e-02) (24, -4.66833854832243433375e-01) (25, -8.56380819492176814656e-01) (26, 1.60679726861848126696e+00) (27, -5.14523389923556395686e-01) (28, 5.89311778835021504719e-01) (29, 1.40666204764875835131e+00) (30, 1.14132876478900066597e-01) (31, 2.08951191957011461753e+00) (11, 2.27861246528041094805e+00) (12, 1.16174278234093031337e+00) (13, 2.24227325294705037706e+00) (14, -5.77769172576432410438e+00) (15, 2.17066793718583772588e+00) (16, 3.31107025401043131296e+00) (17, 9.93212530386098690904e-01) (18, 1.62554049456067217783e+00) (19, 1.21695373631701797557e+00) (20, 1.20729762892071268432e+00) (21, 2.26894295345346108661e+00) (22, -3.54979046933691644305e-01) (23, 2.22672161872132479132e+00) (24, 1.72929616278725939438e-01) (25, 8.60472970584842733466e-01) (26, 2.17002441215741992409e+00) (27, 1.65071096820077078959e+00) (28, 3.94924386325301080003e-01) (29, 1.05274032993558397386e+00) (30, 1.16700270362929581225e+00) (31, -1.34496452468125055058e-01) (11, -4.45651126162566690869e-01) (12, -7.98058848105348994650e-01) (13, -1.15668420585292297531e+00) (14, -8.06551290947181143132e-01) (15, 1.37412508266695976289e+00) (16, 1.41749094938407327327e+00) (17, 1.31471987419483427040e+00) (18, 1.64927977161904970593e+00) (19, 1.20244376239152095387e+00) (20, 1.17046374676576941942e-01) (21, 4.91126266633597763356e-01) (22, 2.11538307610477982479e+00) (23, 1.17687641712392232485e+00) (24, 1.66623853367093599509e+00) (25, 5.39424304548047794938e-01) (26, 2.38621435359462408243e+00) (27, 7.63715558020825580066e-01) (28, 2.31722469156952354252e-01) (29, 2.49663735757131632909e+00) (30, 1.44436528000024999585e+00) (31, -1.24478188480963078422e-01) (11, 2.00227304448007492610e+00) (12, 7.30301530762168082944e-01) (13, 1.07514701883197403731e+02) (14, 2.88797369412916316023e+00) (15, 7.93532185944455376037e-02) (16, -3.16621309344460115653e+01) (17, -5.43358387633514272608e+00) (18, -3.52092330893719207552e+01) (19, 8.92461896357142414615e+00) (20, 6.20277574077348736736e-01) (21, 2.15596591297992379310e+00) (22, 1.28120845790372928086e+00) (23, 2.60886112542617620846e-01) (24, -5.28587202361252295191e+00) (25, -4.26001344174021578937e+00) (26, 1.06744435581893704068e+01) (27, 5.50586901869723366332e+00) (28, -8.64570392857211267312e-01) (29, 2.21434336239322959727e+01) (30, -2.29461769795085892554e+01) (31, 7.78170390847881976448e-01) (11, -1.20943664451363774859e+00) (12, -7.50223558480850649666e-01) (13, 1.21662151137492968722e+00) (14, 6.72408989872122120346e+00) (15, 2.83280462865500570757e+00) (16, -1.03032674220613101879e-01) (17, 4.41177423455734407653e-01) (18, 2.15795438625535362931e+00) (19, 1.50381408079229617059e+00) (20, -8.88105345595535999870e-01) (21, -3.63568294137178449343e-01) (22, 5.68648324027541396397e-01) (23, 1.61107659871280506358e+00) (24, 7.21357752543856034499e-01) (25, 9.16073085974578038559e-01) (26, 1.30175488316720455728e+00) (27, 1.61787386653558939997e+00) (28, 3.58407716143492538485e-01) (29, -4.84668360723540872503e-02) (30, 7.19382627072634117660e-01) (31, -1.97058910543537080251e-01) (32, -4.74380730270019590478e-01) (33, 2.20687933099184163677e-01) (34, 2.46286974158616356334e+00) (35, 6.84908422887343382168e-02) (36, 9.36251903950690439471e-02) (37, 1.29757359436504599026e-01) (38, 2.26590594975676218326e+00) (39, 5.21767125228665640257e-01) (40, -7.15398181499004692796e-01) (41, -3.42806072985979315426e-01) (42, 5.00396208006865239604e-02) (43, 1.34660521557622958611e+00) (44, -3.35853058329511899860e-01) 
