FANN_FLO_2.1
num_layers=4
learning_rate=0.700000
connection_rate=1.000000
network_type=0
learning_momentum=0.000000
training_algorithm=2
train_error_function=1
train_stop_function=0
cascade_output_change_fraction=0.010000
quickprop_decay=-0.000100
quickprop_mu=1.750000
rprop_increase_factor=1.200000
rprop_decrease_factor=0.500000
rprop_delta_min=0.000000
rprop_delta_max=50.000000
rprop_delta_zero=0.100000
cascade_output_stagnation_epochs=12
cascade_candidate_change_fraction=0.010000
cascade_candidate_stagnation_epochs=12
cascade_max_out_epochs=150
cascade_min_out_epochs=50
cascade_max_cand_epochs=150
cascade_min_cand_epochs=50
cascade_num_candidate_groups=2
bit_fail_limit=3.49999999999999977796e-01
cascade_candidate_limit=1.00000000000000000000e+03
cascade_weight_multiplier=4.00000000000000022204e-01
cascade_activation_functions_count=10
cascade_activation_functions=3 5 7 8 10 11 14 15 16 17 
cascade_activation_steepnesses_count=4
cascade_activation_steepnesses=2.50000000000000000000e-01 5.00000000000000000000e-01 7.50000000000000000000e-01 1.00000000000000000000e+00 
layer_sizes=11 21 13 2 
scale_included=0
neurons (num_inputs, activation_function, activation_steepness)=(0, 0, 0.00000000000000000000e+00) (0, 0, 0.00000000000000000000e+00) (0, 0, 0.00000000000000000000e+00) (0, 0, 0.00000000000000000000e+00) (0, 0, 0.00000000000000000000e+00) (0, 0, 0.00000000000000000000e+00) (0, 0, 0.00000000000000000000e+00) (0, 0, 0.00000000000000000000e+00) (0, 0, 0.00000000000000000000e+00) (0, 0, 0.00000000000000000000e+00) (0, 0, 0.00000000000000000000e+00) (11, 5, 5.00000000000000000000e-01) (11, 5, 5.00000000000000000000e-01) (11, 5, 5.00000000000000000000e-01) (11, 5, 5.00000000000000000000e-01) (11, 5, 5.00000000000000000000e-01) (11, 5, 5.00000000000000000000e-01) (11, 5, 5.00000000000000000000e-01) (11, 5, 5.00000000000000000000e-01) (11, 5, 5.00000000000000000000e-01) (11, 5, 5.00000000000000000000e-01) (11, 5, 5.00000000000000000000e-01) (11, 5, 5.00000000000000000000e-01) (11, 5, 5.00000000000000000000e-01) (11, 5, 5.00000000000000000000e-01) (11, 5, 5.00000000000000000000e-01) (11, 5, 5.00000000000000000000e-01) (11, 5, 5.00000000000000000000e-01) (11, 5, 5.00000000000000000000e-01) (11, 5, 5.00000000000000000000e-01) (11, 5, 5.00000000000000000000e-01) (0, 5, 0.00000000000000000000e+00) (21, 5, 5.00000000000000000000e-01) (21, 5, 5.00000000000000000000e-01) (21, 5, 5.00000000000000000000e-01) (21, 5, 5.00000000000000000000e-01) (21, 5, 5.00000000000000000000e-01) (21, 5, 5.00000000000000000000e-01) (21, 5, 5.00000000000000000000e-01) (21, 5, 5.00000000000000000000e-01) (21, 5, 5.00000000000000000000e-01) (21, 5, 5.00000000000000000000e-01) (21, 5, 5.00000000000000000000e-01) (21, 5, 5.00000000000000000000e-01) (0, 5, 0.00000000000000000000e+00) (13, 5, 5.00000000000000000000e-01) (0, 5, 0.00000000000000000000e+00) 
connections (connected_to_neuron, weight)=(0, 7.41701965303568688803e-01) (1, 1.76617124962071869732e+00) (2, 2.00178936660386552759e-01) (3, 5.50702093225947653110e-01) (4, 6.81507509259200006113e-01) (5, 1.26474952689825048679e+00) (6, 8.83564350918391916423e-01) (7, 9.69602713652601200245e-01) (8, 4.05078579294510854325e-01) (9, 5.01560258671804537478e-01) (10, 2.54713522948128656687e-01) (0, 5.31918357858367080171e-02) (1, 6.83704661599773000358e-02) (2, -2.00854331055359769387e-01) (3, 1.02317176842043930374e-01) (4, -1.36387539061979645716e-01) (5, -1.01483933875196677410e-01) (6, -1.95954951834853174919e-01) (7, -6.19421092264236805569e-02) (8, 3.90336687125391549463e-03) (9, 1.24471915703755042770e-01) (10, 9.01763902344069612216e-02) (0, 2.24132230146283556449e-01) (1, 9.22636212505880126677e-01) (2, 5.38244126182322313312e-01) (3, -9.62484179067416845132e-02) (4, 1.43886358768780697748e-01) (5, 3.54183766261659760399e-01) (6, 2.91717313341155248807e-01) (7, 1.01750694439743952224e-01) (8, 9.24930937094050470426e-02) (9, 2.18924856846267612553e-01) (10, 1.17506762968561564997e-01) (0, 1.75956551315360698595e-01) (1, 1.27418686053603097408e-01) (2, -3.83478206048102968073e-02) (3, -2.40881202149745815566e-01) (4, -4.44604523612355667650e-02) (5, 1.54006189437200763370e-01) (6, 1.80034084613659578489e-01) (7, 1.24104646155551612274e-01) (8, -6.49319294924059486895e-02) (9, 1.83758571150538979611e-01) (10, -1.93766282019273455850e-01) (0, 3.53821248230160478876e-01) (1, 2.54581952843379831497e-02) (2, 9.09713451213183255106e-01) (3, 6.45031258396287277002e-01) (4, 7.52853134329289130910e-01) (5, 5.03178111479425593799e-01) (6, 6.37850595008217058357e-01) (7, 8.46086596589976758231e-01) (8, 1.03641969046876702976e+00) (9, 5.42525504044844342211e-01) (10, 7.80553884346841697628e-01) (0, 3.65780064433922802447e-01) (1, 3.48475787587319119076e-01) (2, 3.83007256456644518128e-01) (3, 5.17654496789449636296e-01) (4, 4.53237057857408087713e-01) (5, 5.24480511061472642886e-01) (6, 2.91331367742030389323e-01) (7, 3.09692047315650420547e-01) (8, 5.10602569991716381814e-01) (9, 2.67064342766748008540e-01) (10, 5.88553999343123690480e-01) (0, 7.87767226795258901362e-01) (1, 1.68499949403686999361e+00) (2, 2.94479903396637376911e-01) (3, 8.36794864321041109712e-01) (4, 5.30430952046712977932e-01) (5, 1.14418344128540083737e+00) (6, 9.14331879874754727133e-01) (7, 8.37182705073669874984e-01) (8, 4.17202810920373978743e-01) (9, 6.44866794674847754187e-01) (10, 3.76275415055843498457e-01) (0, -2.62041714685283588793e-01) (1, 2.49427927950484684683e-01) (2, -3.47503819057788376767e+00) (3, 2.97076544176145951326e+00) (4, 1.85791724319650675135e+00) (5, -2.24572530906491696356e+00) (6, 3.99843540099211303129e+00) (7, -5.34064250287549890928e-01) (8, -5.92388792865279567579e-01) (9, -2.99879719437557401562e+00) (10, 1.43895349376621894955e+00) (0, 7.43832677299437250440e-01) (1, 1.07866546030551568869e+00) (2, 3.75136426890041452253e-01) (3, 6.85717361666008162757e-01) (4, 6.47592718251460586210e-01) (5, 9.90516595033861579900e-01) (6, 1.36083476585469043130e+00) (7, 4.00424292358014577431e-01) (8, 3.02103246701704686306e-01) (9, 9.43256409529918737888e-01) (10, 3.92707339823159085057e-01) (0, 3.79743524173173074843e+00) (1, -1.89241281659064277676e+01) (2, 8.41163273122054278019e+00) (3, -5.17006641502041119907e+00) (4, 1.04165582699931391630e+00) (5, -1.38431965139737211956e+00) (6, 1.15003212106443997165e+00) (7, 7.77370560333633386918e-01) (8, 1.92633061493332524705e+00) (9, -1.45991213291503174609e+00) (10, -9.33981440059651557561e-01) (0, 8.96591641019880425389e-01) (1, -1.65668572759339244316e-01) (2, -6.80457804476553995698e+00) (3, -1.06701375573188173007e+00) (4, 1.33146948417050907665e+01) (5, 3.09680257260736979674e+00) (6, 1.39090206059406806816e+01) (7, -7.49859756936797250404e+00) (8, -3.35829095824642065438e+00) (9, -6.12831326829205735862e+00) (10, -3.42936445288218039185e-01) (0, 4.01530895729169612363e-01) (1, -1.36425775626786816019e-01) (2, -3.28565248086463701505e-01) (3, -4.21692360191370130273e-01) (4, 3.90403406885689308048e-01) (5, 5.13406210250774985848e-02) (6, -3.81207279462862161368e-02) (7, -4.55733971889715372416e-01) (8, 1.93557105522951522492e-01) (9, 3.79057190198412385929e-01) (10, -2.85258921919232452669e-02) (0, 8.23457721258099684114e-01) (1, 7.58326654698649349484e-01) (2, 2.51170245262180735768e-01) (3, 6.42609464915125494500e-01) (4, 4.60417842575791880222e-01) (5, 8.61525437369728974701e-01) (6, 8.10038588507375090231e-01) (7, 5.71958977547138536224e-01) (8, 5.47191438613481406783e-01) (9, 7.79458189118742761359e-01) (10, 5.44460251741644363221e-01) (0, 4.54692469576808977472e-01) (1, 1.15888621773332353704e-01) (2, 8.33265074490599388923e-01) (3, 7.60376150744592749220e-01) (4, 9.04570898518505916996e-01) (5, 5.93745008344006341972e-01) (6, 2.42861353454104644811e-01) (7, 6.07023927468288593268e-01) (8, 9.15999986075655248108e-01) (9, 6.06413538296314946763e-01) (10, 8.10471092913998103491e-01) (0, 1.69610783232937789577e+00) (1, -7.83227334277316833422e-01) (2, -1.40185839401235430302e+01) (3, 8.39538036909566076638e-01) (4, -1.98243771393457751673e-01) (5, 1.28309471316529428719e+01) (6, 3.02062845258394378767e-02) (7, -3.76835494848837848636e+00) (8, 5.71785078056624573861e+00) (9, 2.91072692289896906015e-01) (10, -1.47311382112874506012e-01) (0, 3.46098656996195852553e-01) (1, 3.27023277902828424235e-01) (2, 7.52660235222853524206e-01) (3, 4.71453233634033519461e-01) (4, 9.75677983829220107914e-02) (5, 4.30967323489026388206e-01) (6, 2.38941950212231440931e-01) (7, -8.13581482225145397047e-02) (8, 5.40325474212979273148e-01) (9, 2.05193674606572923347e-01) (10, 5.87984618292083038860e-01) (0, 1.61994936560502650336e-01) (1, 1.16957927584573309621e-01) (2, 2.24606653205005862839e-01) (3, 3.59643840525198099645e-02) (4, 1.88865006690424018509e-02) (5, 2.47102947041504567016e-01) (6, 3.52489744084705680649e-01) (7, -4.14275802608631837920e-01) (8, -1.24521615865795992617e-01) (9, -5.08670312872261456971e-02) (10, -2.17644489352355419154e-01) (0, 7.38358342377075427265e-01) (1, 1.17204923089568180394e+00) (2, 2.92730428319242175217e-01) (3, 6.17704050269657689576e-01) (4, 7.15669452276620265962e-01) (5, 1.11146327235882824702e+00) (6, 8.52140871080653172775e-01) (7, 6.99301876777684294773e-01) (8, 5.38917956835918587899e-01) (9, 6.35225720480817490632e-01) (10, 3.94125970602165587309e-01) (0, 3.66757166142886059657e-01) (1, 2.66278256583082406639e-01) (2, 9.06256239720054423969e-01) (3, 9.72724000180043346653e-01) (4, 8.41600396373374026737e-01) (5, 5.85372296215668219688e-01) (6, 2.49398797109805475669e-01) (7, 5.80331750685934233402e-01) (8, 9.52155449121446895155e-01) (9, 6.32074601538511582355e-01) (10, 8.71460368009198127481e-01) (0, -1.36389565211673974288e-01) (1, 3.97822464600100511589e-01) (2, -6.24826514738272484339e-02) (3, -3.64904556702125626444e-01) (4, -3.85460376826595785271e-01) (5, 5.24719714306764450917e-01) (6, 2.15894883783222413243e-01) (7, 1.66713617728269786200e-01) (8, 3.49204099029517489594e-01) (9, -1.15028409802800310469e-01) (10, 1.14267744773068544162e-02) (11, -4.59620071409388819550e-01) (12, 4.10015778829184096566e+00) (13, 2.55196936932328366510e-01) (14, 9.09988170886032898821e-01) (15, 4.29339042316684904588e-01) (16, 4.87716647073592579620e-01) (17, -4.41969750520711857078e-01) (18, -1.62504131653956440662e-01) (19, -4.46299672485031051483e-01) (20, -9.93315631740876725519e-02) (21, 1.60332537295867244564e-01) (22, -3.60736521381426866739e+00) (23, -3.44312113264614250152e-01) (24, 3.53919345401228657710e-01) (25, 2.78285581667794545968e-01) (26, 3.33174188430632067792e-01) (27, 3.27917701765784719292e-01) (28, -2.43711076141127164219e-01) (29, 3.19979653523350116018e-01) (30, 1.01420415743340514014e-01) (31, 3.93727570019221095876e-01) (11, 1.22132085173035101477e-01) (12, 8.69477668224153035226e+01) (13, -2.25394818738398144964e-01) (14, -5.07254061816245922500e+01) (15, -2.09917889585370831540e-01) (16, -8.65785719177451784656e-02) (17, 1.85738310428908953709e-01) (18, 8.98969036113013042488e-01) (19, 1.56807994500966080276e-01) (20, 6.12775188508960066969e-01) (21, -1.16913237845123574310e+00) (22, 8.53760384526243427672e+01) (23, 7.79832341000411682908e-02) (24, -1.70191235037355725890e-01) (25, 1.68086278949224099399e+00) (26, -2.52049578160578047203e-01) (27, 2.88404312949630501350e+01) (28, 2.64270314421384100445e-01) (29, -2.08592496409620936637e-01) (30, -6.53362725263112564811e-01) (31, -4.61122739546639681674e-02) (11, -4.71213886510043367117e-01) (12, 3.21687588181665384823e+00) (13, 3.15144898165807318957e-01) (14, 1.80760299580090255667e+00) (15, 1.64103289109951838709e-01) (16, 2.01812903157592260506e-01) (17, -4.40050730311076498946e-01) (18, -8.50050655538746591233e-02) (19, -3.68038078108535948729e-01) (20, -1.06837777258867783203e-01) (21, -2.22050589886789162541e-01) (22, 6.34069400561289020501e-01) (23, -3.03651691871812456913e-01) (24, 2.52321346662619239165e-01) (25, 4.31227952168763903340e-02) (26, 1.44633559687417728723e-01) (27, 6.63451638094375462096e-01) (28, -3.90882581333149126124e-01) (29, 2.19161528600880534112e-01) (30, 9.11082373426833347363e-02) (31, 2.97720816428231893624e-01) (11, 6.69501478924312887209e-01) (12, 2.27093494306473274946e+02) (13, 4.77499552547200778463e-01) (14, -1.25668665383974631489e+00) (15, 7.04353270496870687012e-01) (16, 6.33881404997011066449e-01) (17, 6.09902906165381342163e-01) (18, 4.11588738070216280107e+01) (19, 5.91544608445485176063e-01) (20, 2.32868065058493556307e+00) (21, -8.21786127455450454704e+00) (22, 1.40785409697963803666e+01) (23, 6.09875593240877034162e-01) (24, 7.02741409649458970144e-01) (25, 1.88890114316271926498e+01) (26, 7.27076958157472419408e-01) (27, 3.38427357663704881929e+01) (28, 5.14534417683391587239e-01) (29, 7.49775200199655489364e-01) (30, 1.24555771365852097077e+00) (31, 2.72127852039198891987e+00) (11, 7.69105164409886465915e-02) (12, 2.75404927150606759767e+00) (13, -1.41557482417717594991e-01) (14, 5.16640793181642266063e+00) (15, -3.96664463299976344235e-02) (16, 3.32247902650550375192e-02) (17, 6.48875571386399729867e-02) (18, 3.78193332540115267904e+00) (19, -7.67756562477898557573e-02) (20, 2.63699765669295371762e-01) (21, 9.97294509726847078213e-01) (22, 6.42774203710823854863e+00) (23, 1.03956324938850291906e-01) (24, -7.72702588005691470840e-02) (25, -3.83820936716756629450e-03) (26, -2.49948612079118809293e-01) (27, -8.66498169335645940237e+00) (28, 1.42903636860624960736e-01) (29, -6.68833832418469914627e-02) (30, -5.96212262457843866770e-01) (31, -3.13504293696483526954e-01) (11, 6.28212815687081094218e-01) (12, 8.94079672196363617331e+02) (13, -1.14775482560085823058e-01) (14, 2.32682286991722248048e-01) (15, 5.23597386007317588952e-02) (16, -4.83060742958235506128e-02) (17, 5.73299891053749122172e-01) (18, 2.00473331687009848068e+00) (19, 6.15996295960818396331e-01) (20, 1.74275919726826677980e+00) (21, 1.30416698737198881730e+01) (22, -1.94441470713437314366e+00) (23, 6.71848393460578674485e-01) (24, -9.59640344064496275678e-02) (25, -5.80218597253595191887e+00) (26, -1.89041597272603563440e-02) (27, 1.64207259712938680174e+00) (28, 6.73193309584370513932e-01) (29, -1.52026585598097449710e-03) (30, 2.52833471499269768490e-01) (31, -8.46313451644405689844e-02) (11, 1.64727344595908720137e+00) (12, 6.77812842252540281862e+00) (13, 1.30743933375024146137e+00) (14, 1.15168812044903727809e+01) (15, 3.89671806416358956771e-01) (16, 4.86526183365863895691e-01) (17, 3.82752853936021264492e-01) (18, 1.77151886832488214552e+00) (19, 2.61231136795651408544e-01) (20, 2.54266632313171703217e+00) (21, 1.56879015323818649108e-01) (22, 1.07144312976202709109e+01) (23, 1.36707540959369683309e-01) (24, 4.12184129332537396717e-01) (25, 4.37253015511645326541e+00) (26, 3.56252281742100440631e-01) (27, -2.62254853879368567959e+01) (28, 2.12150526984216825088e-01) (29, 4.03734648227834447276e-01) (30, 7.50715907823893324746e+00) (31, 3.57925284358507622695e-01) (11, -3.40377746440463702093e-01) (12, 1.75020124150245726113e+00) (13, 2.96426016289238147827e-01) (14, 1.28178310999761668754e+00) (15, 2.73593706036288186745e-01) (16, 1.92567533730200302067e-01) (17, -3.39065908598354004422e-01) (18, -1.19257861065025450031e-01) (19, -4.65082295201640016913e-01) (20, -7.76997743465683010644e-02) (21, -1.48442385833763124126e-01) (22, -2.88892618844519910581e+00) (23, -3.54745221924105014200e-01) (24, 1.73178627863943918053e-01) (25, 8.22545961604173314630e-02) (26, 2.18005335952598799931e-01) (27, 7.41818510926186003296e-01) (28, -4.66481782681098244847e-01) (29, 2.21094636618630879799e-01) (30, 2.89997203217231616645e-02) (31, 2.74312124354940956028e-01) (11, 4.29456251293015234261e-01) (12, 2.07776745864425897992e+01) (13, 7.71976850119499347080e-01) (14, -1.26817143824213811598e+01) (15, 3.49071665242925988082e-01) (16, 5.02401866258962104261e-01) (17, 2.35774297043498198834e-01) (18, -8.16501407314569993545e-01) (19, 3.54011246039925620011e-01) (20, -7.52305565631484207678e-02) (21, 2.79759563385609588693e+00) (22, -1.36521944463395694669e+01) (23, 4.06387909720107354250e-01) (24, 6.48527697302411776370e-01) (25, 2.47179967559340507677e+00) (26, 2.46263548796366027460e-01) (27, -3.26008942641084971115e+01) (28, 3.98473092046369048447e-01) (29, 6.44318637158979301560e-01) (30, -3.55010855143648607068e-01) (31, 4.67035813152847423257e-01) (11, -1.04768220221268512637e-01) (12, 2.62518667091317787765e+01) (13, 5.89897772065126946295e-01) (14, 6.28232709228050811845e+00) (15, 7.31611555628579934840e-01) (16, 7.56102033346654600621e-01) (17, 3.20362627217053164141e-02) (18, 1.33527017298691452751e+00) (19, 6.96010208654581907783e-02) (20, 1.93586146174871825965e-01) (21, -3.95152512964476954060e-01) (22, 1.87199880557996429786e+01) (23, 3.61971729280794185524e-02) (24, 5.79141895887367197382e-01) (25, 2.66549337537194430681e+00) (26, 6.11402987818124854513e-01) (27, -1.44665977416247759635e+01) (28, -3.73718930478296323949e-02) (29, 7.69773301257577702295e-01) (30, 5.07244755803043734232e-01) (31, 9.36896079207613641238e-01) (11, 9.61355964850707955804e-01) (12, 1.08777008337755404455e+02) (13, 7.37287973707673627288e-01) (14, -8.05888633050928504531e+00) (15, 8.73733432356418870945e-01) (16, 1.54397058637122452929e+00) (17, 1.03204803451114335289e+00) (18, -3.99400039888275548705e-01) (19, 1.04786528762152975069e+00) (20, 2.46641798786307120395e+01) (21, 1.20550614959636046564e+01) (22, -1.65442362978350310243e+01) (23, 1.08282998986827405652e+00) (24, 9.03491588664283695742e-01) (25, 9.97139755054187588712e+01) (26, 9.08784481242937869361e-01) (27, -1.33593695277603004001e+01) (28, 9.77285561988062490002e-01) (29, 7.87023998266561108927e-01) (30, 2.13517538863243094838e+00) (31, 7.09777365483448385852e-01) (11, 7.15822488988991589842e-01) (12, 1.73920753854584347664e+02) (13, 3.58899712476693111274e-01) (14, -1.40710471263861229829e+01) (15, 3.24235409456538281603e-01) (16, 5.18770968232695639522e-01) (17, 7.43502673422542947890e-01) (18, 1.06336433101936833623e+00) (19, 8.44772850197779368031e-01) (20, -3.16057131412224867617e+00) (21, 7.03401807249725319338e+00) (22, 2.12371015131869178560e+01) (23, 7.90397198657348809547e-01) (24, 1.63270817951139957103e-01) (25, 4.05767911687860927117e+00) (26, 4.79853811563464904832e-01) (27, -1.30824028080944458452e+02) (28, 7.13898597018113201251e-01) (29, 3.47877286374051186701e-01) (30, 1.01113383487942298800e-01) (31, 5.39579911610412299439e-01) (32, 5.99747284646779621475e-01) (33, 1.18043875856177274408e-01) (34, 8.67453192905434877780e-01) (35, -1.07846574713814841173e-01) (36, 3.30234456013875632419e-01) (37, -9.89799545948138459472e-02) (38, -2.44527287878150340061e-01) (39, 6.90194954483878131413e-01) (40, 5.73133577714940223302e-01) (41, 4.69725534051353532661e-01) (42, -1.15150264754250775123e-01) (43, -1.92793008224216494417e-01) (44, 2.78183552670506206717e-01) 
