FANN_FLO_2.1
num_layers=4
learning_rate=0.700000
connection_rate=1.000000
network_type=0
learning_momentum=0.000000
training_algorithm=2
train_error_function=1
train_stop_function=0
cascade_output_change_fraction=0.010000
quickprop_decay=-0.000100
quickprop_mu=1.750000
rprop_increase_factor=1.200000
rprop_decrease_factor=0.500000
rprop_delta_min=0.000000
rprop_delta_max=50.000000
rprop_delta_zero=0.100000
cascade_output_stagnation_epochs=12
cascade_candidate_change_fraction=0.010000
cascade_candidate_stagnation_epochs=12
cascade_max_out_epochs=150
cascade_min_out_epochs=50
cascade_max_cand_epochs=150
cascade_min_cand_epochs=50
cascade_num_candidate_groups=2
bit_fail_limit=3.49999999999999977796e-01
cascade_candidate_limit=1.00000000000000000000e+03
cascade_weight_multiplier=4.00000000000000022204e-01
cascade_activation_functions_count=10
cascade_activation_functions=3 5 7 8 10 11 14 15 16 17 
cascade_activation_steepnesses_count=4
cascade_activation_steepnesses=2.50000000000000000000e-01 5.00000000000000000000e-01 7.50000000000000000000e-01 1.00000000000000000000e+00 
layer_sizes=11 21 13 2 
scale_included=0
neurons (num_inputs, activation_function, activation_steepness)=(0, 0, 0.00000000000000000000e+00) (0, 0, 0.00000000000000000000e+00) (0, 0, 0.00000000000000000000e+00) (0, 0, 0.00000000000000000000e+00) (0, 0, 0.00000000000000000000e+00) (0, 0, 0.00000000000000000000e+00) (0, 0, 0.00000000000000000000e+00) (0, 0, 0.00000000000000000000e+00) (0, 0, 0.00000000000000000000e+00) (0, 0, 0.00000000000000000000e+00) (0, 0, 0.00000000000000000000e+00) (11, 5, 5.00000000000000000000e-01) (11, 5, 5.00000000000000000000e-01) (11, 5, 5.00000000000000000000e-01) (11, 5, 5.00000000000000000000e-01) (11, 5, 5.00000000000000000000e-01) (11, 5, 5.00000000000000000000e-01) (11, 5, 5.00000000000000000000e-01) (11, 5, 5.00000000000000000000e-01) (11, 5, 5.00000000000000000000e-01) (11, 5, 5.00000000000000000000e-01) (11, 5, 5.00000000000000000000e-01) (11, 5, 5.00000000000000000000e-01) (11, 5, 5.00000000000000000000e-01) (11, 5, 5.00000000000000000000e-01) (11, 5, 5.00000000000000000000e-01) (11, 5, 5.00000000000000000000e-01) (11, 5, 5.00000000000000000000e-01) (11, 5, 5.00000000000000000000e-01) (11, 5, 5.00000000000000000000e-01) (11, 5, 5.00000000000000000000e-01) (0, 5, 0.00000000000000000000e+00) (21, 5, 5.00000000000000000000e-01) (21, 5, 5.00000000000000000000e-01) (21, 5, 5.00000000000000000000e-01) (21, 5, 5.00000000000000000000e-01) (21, 5, 5.00000000000000000000e-01) (21, 5, 5.00000000000000000000e-01) (21, 5, 5.00000000000000000000e-01) (21, 5, 5.00000000000000000000e-01) (21, 5, 5.00000000000000000000e-01) (21, 5, 5.00000000000000000000e-01) (21, 5, 5.00000000000000000000e-01) (21, 5, 5.00000000000000000000e-01) (0, 5, 0.00000000000000000000e+00) (13, 5, 5.00000000000000000000e-01) (0, 5, 0.00000000000000000000e+00) 
connections (connected_to_neuron, weight)=(0, -1.67553339812937907016e-01) (1, -3.44416192914335506092e-02) (2, 8.11974659117847163969e-01) (3, 1.61610972198907687503e-01) (4, 2.61375678589595039636e-01) (5, -6.12791431768912112088e-02) (6, 9.73206816034397625970e-01) (7, 8.34638816704260100288e-01) (8, 8.16693123253885433499e-01) (9, 7.60868145321768718503e-01) (10, -2.16361161500353768594e-02) (0, 8.45550369417626068724e-01) (1, -7.46832435687383583423e-02) (2, 2.47901309782349560384e-01) (3, 4.55994931658437185895e-01) (4, 3.67193561476434116031e-01) (5, 3.87842108169866306433e-01) (6, -1.53169288722911800527e-01) (7, 1.32776317050945946718e+00) (8, -1.17143770407944297629e-01) (9, 8.26000041918133032226e-01) (10, 7.47733780523662572293e-01) (0, 1.19102511838516189613e+00) (1, 2.35300649635880404498e-01) (2, 2.10758786090320088258e-01) (3, 2.47492927868131096236e-01) (4, 1.54898970194690621671e-01) (5, 5.31777700321066637557e-01) (6, 9.85548621666343105385e-02) (7, 1.81195663046865712564e-01) (8, 1.83540807860869792378e-01) (9, 2.34161031484084625198e-01) (10, 1.04059135838272065477e+00) (0, 1.03355295938240110409e+00) (1, 1.61260405023966636728e-02) (2, 7.07122775545640791517e-02) (3, -1.23220305447251293751e-01) (4, 6.64518640956856532220e-01) (5, 1.04543689647385518171e+00) (6, -3.66520732998470502584e-02) (7, 9.15500689089198238513e-01) (8, 1.19756347453762221344e-01) (9, 1.12345570557831453407e-01) (10, 8.85336559531812006263e-01) (0, 1.21543121824611888293e+00) (1, -5.91610151839880651914e-02) (2, 1.51832483033765869296e-01) (3, 7.96986851760569936509e-01) (4, 5.43172232145430547434e-02) (5, 3.09024337703500517893e-01) (6, 2.79822000151094020526e-02) (7, 1.87631016432979802477e-01) (8, 1.51671145700949389079e-01) (9, -9.03017885357699189031e-03) (10, 9.65116567967768346215e-01) (0, 9.98118547844396353241e+00) (1, 1.58298126486084922426e+00) (2, 8.97328551181494304956e+00) (3, 3.69296015191366899799e+00) (4, 8.82856828508839974745e+00) (5, -3.05269888763667340825e+00) (6, 8.86128691816608338172e+00) (7, 7.17909024773335957548e+00) (8, 1.26482788974867332854e+00) (9, -4.79728048945211538179e-01) (10, 8.29045911604281648977e-01) (0, -7.98005363345103552186e-03) (1, -1.00147980977402517588e-01) (2, 7.81025174671337363286e-01) (3, 9.96571858067628824074e-01) (4, 4.40304403612493788778e-01) (5, -7.36563382198932442568e-02) (6, 8.89288469365716816029e-01) (7, 8.88513591102676580924e-01) (8, 9.42039045907492211818e-01) (9, 8.37098812063268082895e-01) (10, 9.21348702113839790329e-01) (0, -3.46054124911875060633e+00) (1, -1.78738664905414956774e-01) (2, -4.74043845173505573598e+00) (3, 1.93502487963941272042e+00) (4, -2.55450967501120551617e+00) (5, -1.19726867730345687413e+00) (6, -6.76012127294730191807e+00) (7, -3.57976181026620965397e+00) (8, 2.34853370729503208025e+00) (9, 5.16576144844781826038e+00) (10, 2.30464953833449959220e+00) (0, -8.78417917412189219739e-01) (1, 1.15594681343951011243e-01) (2, 6.82232279555412879368e-01) (3, 3.99989007788345118932e-01) (4, 2.32025952708024063575e-01) (5, -1.00747884747625882085e+00) (6, 8.18876819020696311568e-01) (7, 4.49050347330348376129e-01) (8, 5.77212603956155145823e-01) (9, 2.84538994892754693034e-01) (10, 3.69682188149452972681e-01) (0, 1.16130566277797631081e+00) (1, -1.78061909984052357814e-01) (2, -3.45006779518608863722e-01) (3, 2.74971022057788450077e-01) (4, 4.18048997404511291087e-01) (5, -9.69556604229493634861e-01) (6, -1.41559212080888707774e+00) (7, 1.09337647691450112752e+00) (8, -8.39892830509388788052e-01) (9, 2.38015654027529943715e-01) (10, 3.51832562259295211771e-02) (0, -1.04004703801297768706e+01) (1, 7.38946519816863656160e+01) (2, 4.36538701951763670195e+01) (3, -4.82639012236108797538e+01) (4, -3.40696332726704937954e+01) (5, 2.33146062528912203504e+01) (6, 8.04748884942051603275e+01) (7, -5.54416112277948727183e+01) (8, -2.29728999719962985182e+01) (9, -1.31935624625428200574e+01) (10, -1.73521333447098857761e+00) (0, -8.19381933240599380497e+00) (1, -5.78488577187956032333e+00) (2, -6.47921114365103356647e-01) (3, -5.71707447393574863526e+00) (4, -3.47072904411997873453e+00) (5, 1.24186900226850287510e+01) (6, 1.05179087594798961192e+01) (7, 9.10261506515047180699e+00) (8, 2.67354226992425054732e+01) (9, -2.86821249846172037223e+01) (10, -3.28566013257595324060e-01) (0, 5.69717627027320787647e+01) (1, 3.00630083819929666333e+02) (2, -4.56578879514881652568e+00) (3, -4.76049784015028762951e+01) (4, -1.06405346978491863297e+02) (5, -8.50128304803043732818e+01) (6, -3.75074075974302161285e+01) (7, 4.44615360137478987657e-01) (8, 1.07202245877483179015e+02) (9, -2.27007402434255851631e+02) (10, -1.05429651018718661959e+00) (0, -1.46356696804519181843e-01) (1, 7.85420495290667819432e-01) (2, -3.84551232316074076412e-02) (3, 9.06730528002471669602e-01) (4, 3.65683184488085510910e-01) (5, -2.04491402045148928934e-01) (6, 4.01456597622904087785e-01) (7, 1.26247075895165566939e-01) (8, 1.00286702567289554011e+00) (9, 8.93784064269255051904e-01) (10, 8.42396508467710192214e-01) (0, 1.75509258885960184315e+00) (1, 1.45990105142915815861e+00) (2, 1.38873675224648263082e+00) (3, 1.42885587991434936939e+00) (4, 2.65962742526888806793e+00) (5, 2.56273462338482449496e+00) (6, 1.54693656638744769793e+00) (7, 1.32747455178936091258e+00) (8, 1.79846969970971715114e+00) (9, 1.42596419528263385068e+00) (10, 1.44019611924942214642e+00) (0, -4.73266546066572288964e+01) (1, -2.48188017176979052181e+01) (2, 8.75784163393799559572e+01) (3, 1.38753791466508857866e+01) (4, 2.51882083793654452109e+01) (5, -1.02567395599787943183e+02) (6, 6.76740973350845536061e+01) (7, 3.08270179613602568480e+00) (8, 2.76369321253391575510e+00) (9, 5.29347785374282793214e+01) (10, 7.28933441361046252638e+00) (0, 8.10043667712783799217e-01) (1, 3.64741693354357979229e-02) (2, 4.55010775395055244719e-01) (3, 2.63162114879614772445e-01) (4, -1.61931925839438155268e-02) (5, 1.27372888212314128165e-01) (6, -1.54741836869928844900e-01) (7, 4.02500414838748155066e-01) (8, 1.64965132311548044741e-02) (9, 9.67090486329237192242e-02) (10, 8.71682425210087208356e-01) (0, 3.76059233792405336771e+02) (1, -1.42748255397614318696e+01) (2, -3.50418721227036655819e+01) (3, -6.69674054659927548983e+01) (4, 3.43584521336809132208e+02) (5, -1.20850688375021135812e+01) (6, -2.77315506996694161046e+01) (7, -7.42008859002935707849e+01) (8, -2.94627025270663978063e+01) (9, 1.34187733517431155406e+02) (10, 7.93689197005034152710e-01) (0, -3.38612991470767094038e-02) (1, -2.26018275936144125149e-01) (2, 5.58043518400880844688e-01) (3, 8.48917337970224394894e-01) (4, 8.51247161099398241824e-01) (5, 2.61113854594043903745e-01) (6, 7.32339532469920451163e-01) (7, -1.38682837601490221990e-01) (8, -1.78813672356356923032e+00) (9, 3.18678526209685308856e+00) (10, -1.36790081980646238691e-01) (0, -1.31013754103826762787e-01) (1, -9.35653280124026792697e-02) (2, 8.55977445375688872353e-01) (3, 9.90222501386203046714e-01) (4, 1.92497050611569991974e-01) (5, 2.72711932708166182593e-02) (6, 9.77438053346626256612e-01) (7, 8.99535457663859561173e-01) (8, 8.06480254874556989897e-01) (9, 8.09537936538201829961e-01) (10, -7.10354771554543990009e-02) (11, -3.63915373739862546554e-01) (12, 1.39953712651798012345e+00) (13, 8.80790376535811381231e-01) (14, 9.13588754793295598766e-01) (15, 8.81424541637477632072e-01) (16, 1.38664383984633210467e+00) (17, -3.72169335980900017891e-01) (18, -2.81919765360637730733e-01) (19, 9.90982686758999697929e-01) (20, 6.74576330940868196251e+00) (21, 9.73412325532812761075e-01) (22, 9.40752732014739301292e-01) (23, 7.77448195960952159744e-01) (24, -5.15025112619565850203e-01) (25, -2.62663228815235849645e-01) (26, 9.19646372891176677733e-01) (27, 1.17939388580917903226e+00) (28, 2.07367471620087368001e-01) (29, 9.29949779130986864395e-01) (30, 5.93405455523921654404e-01) (31, -3.42659900138560125082e-01) (11, 4.18338366464191979688e-01) (12, 5.05721490191907374623e-01) (13, -4.03328566237782348836e-01) (14, -5.69346607237220081466e-01) (15, -2.53292199947685481298e-01) (16, 8.53085154352643426634e-01) (17, 4.01143870866675245068e-01) (18, 4.57026142138004742854e-01) (19, 5.89162257732744665262e-01) (20, 2.32228726650974293122e+00) (21, -1.30342083375399347966e-01) (22, 3.26721952450768737819e-01) (23, 3.59998730504016040133e-01) (24, 1.31193000597149844744e+00) (25, 4.22836421456562305821e-01) (26, -1.91232455184920963065e-01) (27, -3.37892621220330813259e-01) (28, 7.74925467899028053154e-02) (29, 1.35015727997507295477e+00) (30, 4.06043582896513877145e-01) (31, 4.41134348240117213358e-01) (11, 1.03161059215973782699e+00) (12, -5.53171605231721152940e-01) (13, -4.01084636027146501647e-01) (14, 9.60751317570962132253e-02) (15, -3.36408249973231154861e-01) (16, 3.35083949855174978438e-01) (17, 1.02270600979575254641e+00) (18, 1.57886720093813170962e+00) (19, -2.21404865549271683278e+01) (20, 6.63382778033559361575e+00) (21, -1.14253252365975430105e-01) (22, 3.41282629763308836823e-02) (23, 4.06596401947428187640e-01) (24, 1.11482692553855522455e+00) (25, 1.12608115048600621044e+00) (26, 4.10689027912735538095e-01) (27, -4.54281369529040246480e-01) (28, 1.59101419575714952970e+00) (29, 1.43906161905883589469e+00) (30, 1.09246436867998752973e+00) (31, 1.03964843769303505461e+00) (11, 5.56718977147137250583e-01) (12, 4.91394738972324940374e-01) (13, 2.48106947984671699636e-01) (14, 3.83713068477438620785e-02) (15, 2.62131635100165849561e-01) (16, 3.66139185991899041017e-01) (17, 6.84608497281700367765e-01) (18, -1.49391651468877895148e+00) (19, 1.19570432311861445385e+01) (20, -1.63169249361327928227e+01) (21, 2.07616782618751249956e+00) (22, 4.16773751819010662700e+00) (23, 3.69214823050163620799e-01) (24, -3.25233841747823326784e-01) (25, 6.64904673441952365209e-01) (26, -6.80352692124076979807e-02) (27, 2.52177600141803293088e-01) (28, 7.66221247363692348209e-01) (29, 1.03279361807693015329e+00) (30, 5.62085382105915631890e-01) (31, -1.04913599604709341373e-02) (11, 3.96727797957803884898e-01) (12, 6.70985189132667469991e-01) (13, -4.22868607096459903083e-01) (14, -6.70681501896552956232e-01) (15, -3.01547874212176103548e-01) (16, 9.45731812187351250643e-01) (17, 4.94167311554359667269e-01) (18, 5.74157512231785793766e-01) (19, 1.81760785763844745500e-01) (20, 1.20874123502933050744e+00) (21, 4.26729294371862299950e-02) (22, 5.30722967938476508643e-01) (23, 4.12083806404363317544e-01) (24, 1.32478293813554937053e+00) (25, 4.46617589247276347564e-01) (26, -1.71299085165594805469e-01) (27, -4.24232175766153463137e-01) (28, 2.12516156986143539553e-01) (29, 1.27761829591270958950e+00) (30, 3.84495126637970030536e-01) (31, 4.19674178758815408230e-01) (11, 4.53827850238711860698e-01) (12, 5.17877625622847892473e-01) (13, -3.22199010123761619973e-01) (14, -6.28294094413797354903e-01) (15, -4.19666110700484928930e-01) (16, 8.66160989780943912919e-01) (17, 2.99782701519221927988e-01) (18, -8.59226093362254472741e-02) (19, 1.89365268184158414000e-01) (20, 1.05321291133167438403e+00) (21, 2.69693908511317581578e-01) (22, 4.75128281334700919292e-01) (23, 1.06786775788340770887e+00) (24, 2.75363195312568920237e-01) (25, 4.95337931144501197878e-01) (26, -1.96826554693404626173e-01) (27, -4.40207117580845019855e-01) (28, 1.65385143376786808433e-01) (29, 1.35551630369433140366e+00) (30, 3.47911073560261741022e-01) (31, 4.30230653317605349351e-01) (11, 4.69980081139715344385e-01) (12, 6.35493416542017630633e-01) (13, -2.84407996807829743791e-01) (14, -6.11286200973290672067e-01) (15, -3.68580316772070204490e-01) (16, 1.02363071725379506383e+00) (17, 3.29388772141927521631e-01) (18, 6.09597124160781933533e-01) (19, 3.51377154782506417874e-01) (20, 5.67465572594743150603e+00) (21, -6.85930187399963614547e-02) (22, 2.23713534165256265618e-02) (23, 1.25376596101390580529e+00) (24, 3.82272905486199299219e-01) (25, 4.08072716888321251894e-01) (26, -2.90447338350839412424e-01) (27, -3.05510813617957510679e-01) (28, 8.66845443254835174018e-02) (29, 1.29901093461185324074e+00) (30, 4.81141556500796041540e-01) (31, 3.63551834773381377097e-01) (11, 1.26239143039798329404e+00) (12, 7.48693696863406921160e-01) (13, 2.89134570724487283133e-01) (14, 8.51080453221188748536e-01) (15, 3.21993263547216967968e-01) (16, -6.84326938669006623606e-01) (17, 1.34867585381869758976e+00) (18, -4.84222337144894932059e-01) (19, -3.36744490624782732979e+00) (20, 1.51554126731006082451e+01) (21, -1.87845285248993659755e-01) (22, 2.57260861399889517731e-01) (23, 1.10017398037303326674e+00) (24, 1.31861179999501687554e+00) (25, 1.31631463457058006661e+00) (26, -3.44335303839912953983e-01) (27, 2.89665947743088791899e-01) (28, 1.51077786264906199776e+00) (29, 2.89561739186255329148e-01) (30, 1.17453711918515812940e+00) (31, 2.30839884186875732297e-01) (11, 1.80576748433791345327e-01) (12, 5.56628759322717825420e-01) (13, -5.73011966119311155765e-01) (14, 9.38581401911935508942e-01) (15, -5.97865460700178874554e-01) (16, -6.29621940397578572224e-01) (17, 1.04140158567819426927e-01) (18, 6.66990070654744027223e-01) (19, 9.99395554361133031662e-01) (20, 2.56711249414751385700e+00) (21, -1.86829377050320932785e-01) (22, 1.14990208226047399553e-01) (23, 1.01727910836561852292e+00) (24, 1.76576023821855110363e-01) (25, 1.60760123063300452984e-01) (26, -6.34683356998646530656e-01) (27, -6.06021370563166850154e-01) (28, 5.27000836160697261334e-01) (29, 1.29649100474508016667e+00) (30, 1.54135194189499391548e-01) (31, 2.65422263030150096252e-01) (11, -5.08893834517350596158e-01) (12, 1.32514163375722548999e+00) (13, 1.24217048264065343943e+00) (14, 1.55587684754328492431e+00) (15, 1.26096179170370836786e+00) (16, 7.71192753513894324602e-02) (17, -5.13168098702507902154e-01) (18, 3.06654936681021061951e-01) (19, -3.24000335864978294964e+00) (20, -1.12816812594970089512e-02) (21, 1.55706276304750201867e-01) (22, 1.48935731735405529896e-01) (23, -2.38807018591462083545e-01) (24, -3.19421459434028498503e-01) (25, -5.69063251500314781772e-01) (26, 4.10687559136074908928e-01) (27, 1.16400803186326129435e+00) (28, -2.69618642255677554154e-01) (29, 2.33490760093184895885e-01) (30, -4.93958806294004626469e-01) (31, -5.04039146730216103265e-01) (11, 2.49622452823289903145e-01) (12, 6.43056426572005568332e-01) (13, 5.97121216877440907922e-01) (14, 8.03148673974083293636e-01) (15, 6.47989162782448002709e-01) (16, -6.44194858633757916344e-01) (17, 1.33667117914732358486e+00) (18, -1.52730450262920591786e-01) (19, 1.23731389459979568279e+00) (20, 5.50894232142207673775e+00) (21, -5.31423031773824550150e-01) (22, 1.47824029060970274507e+00) (23, 1.37836058589170096234e+00) (24, 1.31407875116222516709e+00) (25, 1.36334817134282526574e+00) (26, -5.36761824001325771327e-01) (27, 6.35363874036441678150e-01) (28, 4.86846098853883024749e-01) (29, 2.57884057312353809355e-01) (30, 1.35692482074953080229e+00) (31, 2.44940418965431366827e-01) (11, 3.01740726725151731102e-01) (12, 5.24029905464038603391e-01) (13, -3.23049678371327864124e-01) (14, -6.78332158093496451201e-01) (15, -3.77678834086238202072e-01) (16, 9.79568874224303609566e-01) (17, 4.41476591335503654179e-01) (18, 5.26347770383746915712e-01) (19, -1.73703362821312112807e+00) (20, 2.87938762848323293042e+00) (21, 4.61532645589816103993e-02) (22, 5.65654704222091408994e-01) (23, 4.66179170291525279968e-01) (24, 2.42995699256055547322e-01) (25, 4.33500426727351562128e-01) (26, -1.90147590186537818191e-01) (27, 7.26406617905327678386e-01) (28, 1.60993531571351600196e-01) (29, 1.44260575663825241222e+00) (30, 4.36143433043393424775e-01) (31, 3.49649901221948500307e-01) (32, 7.96155075132716327779e-01) (33, -5.15629515743355693047e-01) (34, -2.50830266840752880153e-01) (35, 3.93059869218667992663e-02) (36, -5.11109231786967321831e-01) (37, -5.17564744536922249907e-01) (38, -4.88745688274560330377e-01) (39, 9.96059199474057938017e-02) (40, 1.06912201579237065019e+00) (41, 1.10674867221745265589e+00) (42, 1.08243957935285115002e-01) (43, -5.03820304719982958730e-01) (44, 2.78248143328245489680e-01) 
