FANN_FLO_2.1
num_layers=4
learning_rate=0.700000
connection_rate=1.000000
network_type=0
learning_momentum=0.000000
training_algorithm=2
train_error_function=1
train_stop_function=0
cascade_output_change_fraction=0.010000
quickprop_decay=-0.000100
quickprop_mu=1.750000
rprop_increase_factor=1.200000
rprop_decrease_factor=0.500000
rprop_delta_min=0.000000
rprop_delta_max=50.000000
rprop_delta_zero=0.100000
cascade_output_stagnation_epochs=12
cascade_candidate_change_fraction=0.010000
cascade_candidate_stagnation_epochs=12
cascade_max_out_epochs=150
cascade_min_out_epochs=50
cascade_max_cand_epochs=150
cascade_min_cand_epochs=50
cascade_num_candidate_groups=2
bit_fail_limit=3.49999999999999977796e-01
cascade_candidate_limit=1.00000000000000000000e+03
cascade_weight_multiplier=4.00000000000000022204e-01
cascade_activation_functions_count=10
cascade_activation_functions=3 5 7 8 10 11 14 15 16 17 
cascade_activation_steepnesses_count=4
cascade_activation_steepnesses=2.50000000000000000000e-01 5.00000000000000000000e-01 7.50000000000000000000e-01 1.00000000000000000000e+00 
layer_sizes=11 21 13 2 
scale_included=0
neurons (num_inputs, activation_function, activation_steepness)=(0, 0, 0.00000000000000000000e+00) (0, 0, 0.00000000000000000000e+00) (0, 0, 0.00000000000000000000e+00) (0, 0, 0.00000000000000000000e+00) (0, 0, 0.00000000000000000000e+00) (0, 0, 0.00000000000000000000e+00) (0, 0, 0.00000000000000000000e+00) (0, 0, 0.00000000000000000000e+00) (0, 0, 0.00000000000000000000e+00) (0, 0, 0.00000000000000000000e+00) (0, 0, 0.00000000000000000000e+00) (11, 5, 5.00000000000000000000e-01) (11, 5, 5.00000000000000000000e-01) (11, 5, 5.00000000000000000000e-01) (11, 5, 5.00000000000000000000e-01) (11, 5, 5.00000000000000000000e-01) (11, 5, 5.00000000000000000000e-01) (11, 5, 5.00000000000000000000e-01) (11, 5, 5.00000000000000000000e-01) (11, 5, 5.00000000000000000000e-01) (11, 5, 5.00000000000000000000e-01) (11, 5, 5.00000000000000000000e-01) (11, 5, 5.00000000000000000000e-01) (11, 5, 5.00000000000000000000e-01) (11, 5, 5.00000000000000000000e-01) (11, 5, 5.00000000000000000000e-01) (11, 5, 5.00000000000000000000e-01) (11, 5, 5.00000000000000000000e-01) (11, 5, 5.00000000000000000000e-01) (11, 5, 5.00000000000000000000e-01) (11, 5, 5.00000000000000000000e-01) (0, 5, 0.00000000000000000000e+00) (21, 5, 5.00000000000000000000e-01) (21, 5, 5.00000000000000000000e-01) (21, 5, 5.00000000000000000000e-01) (21, 5, 5.00000000000000000000e-01) (21, 5, 5.00000000000000000000e-01) (21, 5, 5.00000000000000000000e-01) (21, 5, 5.00000000000000000000e-01) (21, 5, 5.00000000000000000000e-01) (21, 5, 5.00000000000000000000e-01) (21, 5, 5.00000000000000000000e-01) (21, 5, 5.00000000000000000000e-01) (21, 5, 5.00000000000000000000e-01) (0, 5, 0.00000000000000000000e+00) (13, 5, 5.00000000000000000000e-01) (0, 5, 0.00000000000000000000e+00) 
connections (connected_to_neuron, weight)=(0, 6.98483085882214083107e-01) (1, 7.50523543332522580229e-01) (2, 7.38942558746928490621e-01) (3, 6.78755007166748747238e-01) (4, 7.33170404316765278452e-01) (5, 1.00044404618929094752e+00) (6, 9.54525494601904278547e-01) (7, 6.94773739470515572236e-01) (8, 8.18969587849637137289e-01) (9, 7.61769922219831085997e-01) (10, 7.46323801595005442699e-01) (0, 6.91740623530706977284e-01) (1, 7.21218137880994314415e-01) (2, 8.96458279726827234057e-01) (3, 7.87848184294035802644e-01) (4, 9.11630227924748348656e-01) (5, 9.82014033788049411910e-01) (6, 1.03534488646713018767e+00) (7, 7.17441475430578790018e-01) (8, 8.51746447396433459254e-01) (9, 7.25175291858284665203e-01) (10, 8.27374986046760740876e-01) (0, 5.35713369428336087102e-03) (1, 3.62272474941346261934e-02) (2, 1.81004247213163826924e-01) (3, 9.93059706963799332380e-02) (4, -4.72374531302284933476e-02) (5, 1.02453264008684055697e-01) (6, 2.00868406655364928337e-01) (7, 1.57734790293299703690e-01) (8, 1.88223778565203114788e-01) (9, -7.49994775949982400709e-02) (10, 1.87598923004821865890e-01) (0, 6.84453859630803629344e-01) (1, 6.74257549964424329758e-01) (2, 9.35870705552370729663e-01) (3, 6.49129730129591964172e-01) (4, 9.14762207598463494840e-01) (5, 1.27789485620178799863e+00) (6, 1.12945569170850235174e+00) (7, 8.47535558788460541280e-01) (8, 9.42009025341468575476e-01) (9, 9.40359137644568132686e-01) (10, 8.60913738354606938863e-01) (0, 7.44858577927454357237e-01) (1, 7.23055088807176171706e-01) (2, 7.55038664497464151459e-01) (3, 8.43098287889343711576e-01) (4, 8.38362628157687805874e-01) (5, 1.05717796926844820327e+00) (6, 9.37641151521480309405e-01) (7, 7.56365070066449374231e-01) (8, 8.60979701029148336566e-01) (9, 8.46882936707714528701e-01) (10, 7.86815877220718995488e-01) (0, 1.72482344312269120223e+00) (1, 8.24197186538416115553e-01) (2, 4.37813693040147500213e-01) (3, 9.11201563645996137630e-01) (4, 1.05051517245596715000e+00) (5, 7.42661272454908538698e-01) (6, 8.80919439059718700769e-01) (7, 6.32019761976733707165e-01) (8, 7.58363557153589051829e-01) (9, 8.24934706255379790463e-01) (10, 8.11224917234124154319e-01) (0, 1.78181272192998929604e+00) (1, 8.26512815131939970748e-01) (2, 4.39015750878708366223e-01) (3, 9.70343576541746744013e-01) (4, 9.58145290799741089494e-01) (5, 7.43593060079402290441e-01) (6, 8.32233128047205283906e-01) (7, 5.21341611292944762113e-01) (8, 7.88419058956831952933e-01) (9, 6.60751960082675005026e-01) (10, 7.53744575459612042856e-01) (0, 8.14470982926091657816e-01) (1, 7.83012911343993645019e-01) (2, 6.53866824971080617956e-01) (3, 8.21384729902906896015e-01) (4, 8.05712334798079909959e-01) (5, 9.62382090498919873234e-01) (6, 8.34920276970218089296e-01) (7, 6.61134322207647118219e-01) (8, 7.97843848640353736634e-01) (9, 8.10354870980749542042e-01) (10, 6.65181772691640360584e-01) (0, 8.05231990492606630738e-01) (1, 8.81978306371717590828e-01) (2, 7.97405996129483374268e-01) (3, 6.18644878716213875158e-01) (4, 8.59565314369352462265e-01) (5, 1.24759861659665771683e+00) (6, 1.13466772780273883470e+00) (7, 7.47686089722724211981e-01) (8, 1.00484613685523926918e+00) (9, 8.97474766055977313250e-01) (10, 8.03935573220395105487e-01) (0, 7.85987991505461502939e-01) (1, 7.41495097672498548746e-01) (2, 9.24825909975683146946e-01) (3, 6.73930323671465769664e-01) (4, 9.35495533522497701995e-01) (5, 1.25952201286330311980e+00) (6, 1.10562568466541222278e+00) (7, 8.58340797631046092953e-01) (8, 9.55314502921233432708e-01) (9, 8.43307191441766246243e-01) (10, 9.12413267272899175531e-01) (0, 4.99276477924783468332e-01) (1, 4.65028349098633664305e-01) (2, 4.15524348108398222656e-01) (3, 6.70410421326947281173e-01) (4, 4.85498537927053996910e-01) (5, 3.30740898766051449886e-01) (6, 2.89898911332668929308e-01) (7, 6.15246060747748790831e-01) (8, 5.65952796266901758671e-01) (9, 5.25499413500739698257e-01) (10, 4.63547474333593889639e-01) (0, 8.47177251222017591026e-01) (1, 6.77082784174377949604e-01) (2, 7.04458955842406475689e-01) (3, 8.10002573395248059995e-01) (4, 8.03864814792472404115e-01) (5, 9.96224334587071602698e-01) (6, 8.86592332634022817217e-01) (7, 7.01625873852694370569e-01) (8, 8.51977456238235841823e-01) (9, 7.15739462912865831434e-01) (10, 7.53695851343551659340e-01) (0, 7.49181232735025792735e-01) (1, 7.98872132702595827425e-01) (2, 9.40747183370858164331e-01) (3, 6.32872577726050433711e-01) (4, 9.12603090965154017944e-01) (5, 1.23083646559593828940e+00) (6, 1.01651314784557622595e+00) (7, 7.89625722550713615711e-01) (8, 9.78340448310919041930e-01) (9, 9.58726356907108723249e-01) (10, 8.60822246576308236499e-01) (0, 9.22870651258416385687e-01) (1, 6.67938078214066255356e-01) (2, 7.98235479954205073838e-01) (3, 8.14557814162234272715e-01) (4, 8.58261395634083434913e-01) (5, 8.57538239559455850447e-01) (6, 8.90446498703999833602e-01) (7, 6.95482572417418176691e-01) (8, 8.34423264892370730728e-01) (9, 7.19899712687038340064e-01) (10, 7.32147179622853139236e-01) (0, 1.14929736853557271092e-01) (1, 1.19599369872242622392e-01) (2, 1.42662583643496820862e-01) (3, 1.47512553681390656823e-01) (4, -8.10784046527212587385e-02) (5, 3.83642115054525917328e-02) (6, 5.89071910017327088349e-02) (7, 2.13345789707203636887e-01) (8, 3.91552934222487852844e-02) (9, 1.34521394058231325008e-01) (10, 1.57790350443001270442e-01) (0, 1.35081746864128826591e-01) (1, 3.59751929482659410509e-02) (2, 9.98649846169139265850e-02) (3, 2.26868503991479342208e-01) (4, -8.40769571752093686223e-02) (5, 1.73642052726447643218e-01) (6, 9.79418167470135353492e-02) (7, 2.47941896965163360855e-01) (8, 1.02919037635864143998e-01) (9, 8.31437102704802588615e-02) (10, 1.69785957612802435035e-01) (0, -1.51822713840111811479e-01) (1, -1.08600917095309404403e-01) (2, -1.14146215019316030204e-01) (3, -3.48843375968552263378e-02) (4, -1.31635990805519353941e-01) (5, 5.73510915207681160055e-03) (6, 1.44651017830346099828e-03) (7, -1.14349190661267197111e-01) (8, -8.80042084028665322348e-02) (9, -1.45618488564033976562e-01) (10, 6.20566089093135681010e-02) (0, 1.74284683350168045912e+00) (1, 7.82013259125601489785e-01) (2, 5.66474895069918549240e-01) (3, 8.72265165938739261975e-01) (4, 1.06274466920946197845e+00) (5, 7.07138205338486591778e-01) (6, 9.27687711604996634307e-01) (7, 5.19323100685612715210e-01) (8, 8.31507168072859736974e-01) (9, 7.89218126454214408128e-01) (10, 6.40831809674360375340e-01) (0, 4.64112294214177358020e-03) (1, 8.88334371436200753713e-02) (2, 1.08719620722101575905e-01) (3, 1.04185403181026717268e-01) (4, 3.16816413117049985870e-02) (5, 1.15832632578616992469e-01) (6, 1.04457618250716671726e-01) (7, 3.18962908452464638520e-02) (8, 2.03733368784639462534e-01) (9, 1.22796448183097040019e-01) (10, 1.06925953659925743189e-01) (0, 7.94036568970951650570e-01) (1, 7.33442821587567017616e-01) (2, 9.37168609145538122895e-01) (3, 6.38458654084487875480e-01) (4, 9.10961027772829501359e-01) (5, 1.24511010283814305133e+00) (6, 1.13802994111528366084e+00) (7, 7.49352134685406179315e-01) (8, 9.38072925080694619560e-01) (9, 8.32507242280046244609e-01) (10, 9.03271661043914098066e-01) (11, 1.00445367776824490136e+00) (12, 9.78036496443863034855e-01) (13, 4.39202091590044862990e-01) (14, 1.11595996941551534043e+00) (15, 1.13900531410905014873e+00) (16, 1.13019886672082892076e+00) (17, 1.08810240002271485515e+00) (18, 1.07835860136614236637e+00) (19, 1.02405302718984447807e+00) (20, 9.70176911451162027333e-01) (21, 5.09843656602428918490e-01) (22, 1.20448739277253213942e+00) (23, 9.95163206083505058608e-01) (24, 1.08906395716280202102e+00) (25, 3.78511844807510933197e-01) (26, 4.45128091755919330641e-01) (27, 1.55124111923070656660e-01) (28, 9.67426558266333613822e-01) (29, 3.68281942469202649981e-01) (30, 1.13446138752016323359e+00) (31, 9.56180970709657906959e-01) (11, 1.10213231705466652155e-01) (12, 1.35213116537798855310e-01) (13, 3.28355033055780398676e-01) (14, 7.85553459084699368109e-02) (15, 1.22106819199696806089e-01) (16, 5.81297531292621003085e-02) (17, 1.45421455298619967111e-01) (18, 2.48967411072439290254e-02) (19, 1.02528344896834919253e-01) (20, 8.44216469234977534564e-02) (21, 5.24133885751111305851e-01) (22, -7.41893167689750832050e-02) (23, 5.73754454324555771688e-03) (24, 5.15880968523613966936e-02) (25, 3.46011291239980534051e-01) (26, 2.17117903437903492225e-01) (27, 9.09457958597348681273e-01) (28, 8.44879013538920448090e-02) (29, 2.92465631272877446545e-01) (30, 2.90289136767073983891e-02) (31, 6.56204208087972362673e-02) (11, 2.72688118742869134437e-01) (12, 3.02354158407192818991e-01) (13, -2.51062361633989927778e-02) (14, 3.36034549518307579241e-01) (15, 2.27498957835458232024e-01) (16, 4.27026088757412825014e-01) (17, 4.25028125342947982190e-01) (18, 2.77435336774097096590e-01) (19, 3.68784839098605876639e-01) (20, 3.95108301323687127748e-01) (21, -7.22381464540489681703e-02) (22, 4.20187908544830956981e-01) (23, 3.05949066709808981113e-01) (24, 2.80237109713796672672e-01) (25, -1.66496477194805064803e-02) (26, 9.00306689282781846817e-02) (27, 3.61378388683415097127e-01) (28, 3.16235301841215954433e-01) (29, -1.28849082324374222125e-02) (30, 2.84333161390846689276e-01) (31, 3.68087979098399964428e-01) (11, -7.38717056770195751314e-02) (12, -1.62812064346164436790e-01) (13, 5.58571006612904596977e-01) (14, -1.38053456207671704226e-01) (15, -1.56261768992246724563e-01) (16, -2.88412380775477823758e-02) (17, -6.62276548095813710759e-02) (18, -7.78090353108129573201e-02) (19, -2.07094852105241783446e-01) (20, -2.17782562380944649805e-01) (21, 2.38057638464858528637e-01) (22, -1.86095989324246646746e-01) (23, -2.17197102162077465559e-01) (24, -1.03063379343641264851e-01) (25, 4.95511579909810928601e-01) (26, 5.49710978988354082020e-01) (27, 8.09960861116836072782e-01) (28, -4.76687512756741316178e-02) (29, 5.04919233862373695310e-01) (30, -1.77391287617183146530e-01) (31, -6.80288595755773051188e-02) (11, 2.28976480771992341179e-01) (12, 3.56288093290889229525e-01) (13, -1.97914194616638852708e-02) (14, 2.45765741466933557158e-01) (15, 2.76739252679430780546e-01) (16, 4.40012945481227102373e-01) (17, 3.35203111441094603329e-01) (18, 3.02166038483280829929e-01) (19, 2.68937545353743978627e-01) (20, 2.24770911371012155344e-01) (21, -1.98370829317174535156e-01) (22, 4.52904580706624759756e-01) (23, 4.09311779316533841389e-01) (24, 3.67306322418316344436e-01) (25, -2.85212688796310266659e-02) (26, 1.54013863410315615665e-01) (27, 3.01209103416373469297e-01) (28, 4.25357142439461433092e-01) (29, -2.71877451033531447600e-02) (30, 3.39073306832736842686e-01) (31, 4.16995974318725204366e-01) (11, 1.08136030083606082819e+00) (12, 1.08845487683723551875e+00) (13, 4.38922987528186314687e-01) (14, 9.98541431960167868986e-01) (15, 1.06769337856781620921e+00) (16, 9.39693843095979475244e-01) (17, 9.60628682337297812310e-01) (18, 9.99321385652164884128e-01) (19, 1.01168081126137732184e+00) (20, 1.12971234960187794094e+00) (21, 5.76150078751165639623e-01) (22, 1.03649904123759917240e+00) (23, 1.14429582717264732850e+00) (24, 1.04398511834011298305e+00) (25, 3.84632371130540273718e-01) (26, 5.08127171232954366609e-01) (27, 1.69546523702719859061e-01) (28, 1.08919011336488291697e+00) (29, 3.58610301649567420057e-01) (30, 1.13056915386691070324e+00) (31, 9.46517099355589253129e-01) (11, 4.09793147829158599382e-01) (12, 4.20428058915344515789e-01) (13, 9.42998189126807995208e-02) (14, 4.19712972367963621512e-01) (15, 4.10470977522235547230e-01) (16, 3.43338205835948040434e-01) (17, 4.24380958113488859773e-01) (18, 4.27115758809422263464e-01) (19, 4.40058123893497632473e-01) (20, 3.82987177300924908074e-01) (21, -1.13079570954993852139e-01) (22, 4.95423526251157486655e-01) (23, 3.05442370967817955485e-01) (24, 4.12329824623753782298e-01) (25, -4.47663648304332754263e-03) (26, -5.87770005763740312210e-03) (27, 4.62658757993317626411e-01) (28, 3.83821990816033631333e-01) (29, 6.28849719093412390380e-02) (30, 4.22503478741485583026e-01) (31, 4.39741242407827859218e-01) (11, 1.08633653176997024836e+00) (12, 1.12503107207095176534e+00) (13, 3.91124977133485873804e-01) (14, 9.50847630882072802905e-01) (15, 1.11296615107032281777e+00) (16, 9.82730215951812535735e-01) (17, 1.09098595468821435439e+00) (18, 9.58344803225947505787e-01) (19, 9.81607778005701536728e-01) (20, 1.11831786611539296672e+00) (21, 6.88201073043819833153e-01) (22, 1.04261211511727580614e+00) (23, 1.08507320118729477798e+00) (24, 1.10289446575375005288e+00) (25, 4.95964111321118672482e-01) (26, 3.33042316382981651302e-01) (27, 1.00794463151492499908e-01) (28, 1.09724191793800129879e+00) (29, 3.28451366830476043646e-01) (30, 9.91934081458492489247e-01) (31, 1.01633347238069848828e+00) (11, 3.64758177803746197476e-01) (12, 3.21853647729354430673e-01) (13, 1.79360228273771488139e-02) (14, 2.29480214439407165239e-01) (15, 3.90385067002096353139e-01) (16, 2.96035947259748744020e-01) (17, 3.84942385728218705587e-01) (18, 3.19331570143383591809e-01) (19, 2.44515406806576629517e-01) (20, 3.19830616018374813692e-01) (21, -2.10126116995642264751e-01) (22, 3.35193260336764997653e-01) (23, 3.94240602228941139362e-01) (24, 2.60715828239923619325e-01) (25, 1.37736042680431380880e-01) (26, -6.52696277816028087165e-03) (27, 1.98091115822425667403e-01) (28, 4.34187068476425575003e-01) (29, 1.55146168619102586134e-02) (30, 3.92629903248026990159e-01) (31, 3.88414692054395660481e-01) (11, -8.52525968054603233703e-02) (12, -3.95050138998467234575e-02) (13, 1.70733872148864207485e-01) (14, -1.04676896861958398932e-01) (15, -2.55579868174443392004e-02) (16, -1.17418604212288141264e-01) (17, -1.24170814545472296686e-01) (18, -1.81702224798683149853e-02) (19, -8.74760684369556701379e-02) (20, -5.57024867574348672705e-02) (21, 3.74724492108249152000e-01) (22, -1.39849983269853483936e-01) (23, -4.92516700891665066414e-03) (24, -4.61978957334885365071e-02) (25, 2.00489444793534615785e-01) (26, 2.47196879506512451341e-01) (27, 8.40575099412986581626e-01) (28, -8.36503535440780154886e-02) (29, 7.88351588084852256122e-02) (30, -1.67123594991234400431e-02) (31, -4.04710146954901164862e-02) (11, -1.22814847914843816579e-01) (12, -3.63192910050922218579e-02) (13, 2.01324515264205611276e-01) (14, -1.46478331145237561373e-01) (15, -8.07719568513441850410e-03) (16, 1.22595097052550106725e-02) (17, 5.23007428290858528142e-02) (18, -1.49857867798429772455e-01) (19, -2.48341367597496275044e-02) (20, -1.28507930604519803389e-03) (21, 3.60919246875356591886e-01) (22, -2.68162930663455589819e-01) (23, -8.48176278269577171853e-02) (24, -2.43180668019436704852e-02) (25, 2.24573231982721166489e-01) (26, 1.41965863840574801902e-01) (27, 9.49435328260022526337e-01) (28, -2.46731736374401315615e-02) (29, 2.11618056284830408087e-01) (30, -1.11819850681486074317e-01) (31, -1.31424307480834751116e-01) (11, 1.08260233778578585095e+00) (12, 1.13653297970646449677e+00) (13, 4.32217923288011784955e-01) (14, 1.03013971047294528027e+00) (15, 1.13333945369952227011e+00) (16, 1.08337133152996845098e+00) (17, 1.07046983653403793291e+00) (18, 9.62648962350203807325e-01) (19, 1.03662636465273894082e+00) (20, 9.85179813526849468275e-01) (21, 5.56578339917993769603e-01) (22, 1.03664899572274649131e+00) (23, 1.13243472601674954880e+00) (24, 1.00033283270609318905e+00) (25, 4.67902462630985727099e-01) (26, 4.57334230980780354070e-01) (27, 3.85441159991481430147e-02) (28, 1.08938090187518765717e+00) (29, 3.82942264608770899237e-01) (30, 1.14124094089674388286e+00) (31, 9.69640036373603741993e-01) (32, -1.08820702015581846633e-01) (33, 1.23070248190708900204e-01) (34, 4.11466645409699405267e-01) (35, 1.01224796061033073258e+00) (36, 3.98874818853794332885e-01) (37, -1.11306755441192700706e-01) (38, 4.46099002099902941509e-01) (39, -1.09765573671357072327e-01) (40, 3.96449685392063544409e-01) (41, 7.60816685055730412834e-01) (42, 8.06658148124382412547e-01) (43, -8.06668630994014923541e-02) (44, 3.72017077964534925716e-01) 
