FANN_FLO_2.1
num_layers=4
learning_rate=0.700000
connection_rate=1.000000
network_type=0
learning_momentum=0.000000
training_algorithm=2
train_error_function=1
train_stop_function=0
cascade_output_change_fraction=0.010000
quickprop_decay=-0.000100
quickprop_mu=1.750000
rprop_increase_factor=1.200000
rprop_decrease_factor=0.500000
rprop_delta_min=0.000000
rprop_delta_max=50.000000
rprop_delta_zero=0.100000
cascade_output_stagnation_epochs=12
cascade_candidate_change_fraction=0.010000
cascade_candidate_stagnation_epochs=12
cascade_max_out_epochs=150
cascade_min_out_epochs=50
cascade_max_cand_epochs=150
cascade_min_cand_epochs=50
cascade_num_candidate_groups=2
bit_fail_limit=3.49999999999999977796e-01
cascade_candidate_limit=1.00000000000000000000e+03
cascade_weight_multiplier=4.00000000000000022204e-01
cascade_activation_functions_count=10
cascade_activation_functions=3 5 7 8 10 11 14 15 16 17 
cascade_activation_steepnesses_count=4
cascade_activation_steepnesses=2.50000000000000000000e-01 5.00000000000000000000e-01 7.50000000000000000000e-01 1.00000000000000000000e+00 
layer_sizes=11 21 13 2 
scale_included=0
neurons (num_inputs, activation_function, activation_steepness)=(0, 0, 0.00000000000000000000e+00) (0, 0, 0.00000000000000000000e+00) (0, 0, 0.00000000000000000000e+00) (0, 0, 0.00000000000000000000e+00) (0, 0, 0.00000000000000000000e+00) (0, 0, 0.00000000000000000000e+00) (0, 0, 0.00000000000000000000e+00) (0, 0, 0.00000000000000000000e+00) (0, 0, 0.00000000000000000000e+00) (0, 0, 0.00000000000000000000e+00) (0, 0, 0.00000000000000000000e+00) (11, 5, 5.00000000000000000000e-01) (11, 5, 5.00000000000000000000e-01) (11, 5, 5.00000000000000000000e-01) (11, 5, 5.00000000000000000000e-01) (11, 5, 5.00000000000000000000e-01) (11, 5, 5.00000000000000000000e-01) (11, 5, 5.00000000000000000000e-01) (11, 5, 5.00000000000000000000e-01) (11, 5, 5.00000000000000000000e-01) (11, 5, 5.00000000000000000000e-01) (11, 5, 5.00000000000000000000e-01) (11, 5, 5.00000000000000000000e-01) (11, 5, 5.00000000000000000000e-01) (11, 5, 5.00000000000000000000e-01) (11, 5, 5.00000000000000000000e-01) (11, 5, 5.00000000000000000000e-01) (11, 5, 5.00000000000000000000e-01) (11, 5, 5.00000000000000000000e-01) (11, 5, 5.00000000000000000000e-01) (11, 5, 5.00000000000000000000e-01) (0, 5, 0.00000000000000000000e+00) (21, 5, 5.00000000000000000000e-01) (21, 5, 5.00000000000000000000e-01) (21, 5, 5.00000000000000000000e-01) (21, 5, 5.00000000000000000000e-01) (21, 5, 5.00000000000000000000e-01) (21, 5, 5.00000000000000000000e-01) (21, 5, 5.00000000000000000000e-01) (21, 5, 5.00000000000000000000e-01) (21, 5, 5.00000000000000000000e-01) (21, 5, 5.00000000000000000000e-01) (21, 5, 5.00000000000000000000e-01) (21, 5, 5.00000000000000000000e-01) (0, 5, 0.00000000000000000000e+00) (13, 5, 5.00000000000000000000e-01) (0, 5, 0.00000000000000000000e+00) 
connections (connected_to_neuron, weight)=(0, 9.64307343502961017423e-02) (1, 3.15647426477692893965e-01) (2, 1.30524784428702300687e-01) (3, 2.95356509863507810110e-01) (4, 2.73031511950907301856e-01) (5, 1.49781391221577547812e-01) (6, 2.70484504019741167635e-01) (7, 1.80596702998225056014e-01) (8, 1.48509719191863315269e-01) (9, 2.91922393209417596616e-01) (10, 1.99667938546879475403e-01) (0, -8.88067286009804578162e-03) (1, 2.85708561700939778216e-01) (2, 4.94849906500555367095e-02) (3, 2.06875515306458701570e-01) (4, 1.27539735780707597090e-01) (5, 5.82669149644204700800e-02) (6, 1.42418418795157875056e-01) (7, 9.28783307412203301690e-02) (8, 1.81746301786459896199e-01) (9, 1.44275790444919338462e-01) (10, 2.13881581221667949055e-01) (0, 1.20359568553217877174e+00) (1, 1.87298010174240553427e-01) (2, 9.89325152492013665251e-02) (3, 1.14893827722319888385e-01) (4, 6.96828871695392010333e-02) (5, 5.39163153793453919782e-01) (6, 1.34456311208828671599e-01) (7, 5.76937576968948387379e-02) (8, 1.73103386197275055380e-01) (9, 1.99301921908867918365e-01) (10, 2.10514256228533147564e-01) (0, 5.75693712022687487107e-01) (1, 4.36614271305262424683e-01) (2, 6.97689054261148133840e-01) (3, 4.96245406692980783880e-01) (4, 6.93041445508426612321e-01) (5, 6.44767384863387249538e-01) (6, 5.71158683545374135093e-01) (7, 6.61664080508144070158e-01) (8, 6.46076792821073331297e-01) (9, 5.38761649909465067942e-01) (10, 5.17253219156834531667e-01) (0, 9.33372909996865751138e-04) (1, 1.71977456855049781748e-01) (2, 2.86288132235531234127e-02) (3, 2.49893505256190195940e-01) (4, 1.76134459500141456190e-02) (5, 1.35847007403930936098e-01) (6, 1.27699601799671824676e-01) (7, 8.75556773092999313102e-02) (8, 1.63321609385580268636e-01) (9, 2.31092844495688981565e-01) (10, 1.52953763197944014873e-01) (0, 1.05667063037071962128e+00) (1, 3.54713877868670868221e-01) (2, 1.48992070055879055612e-01) (3, 2.38416300421125992859e-01) (4, 2.19690047967944612761e-01) (5, 2.54678953345554237586e-01) (6, 1.22049363896076623615e-01) (7, 1.33834552195999184621e-01) (8, 2.39820305937323730028e-01) (9, 1.84414166541712776226e-01) (10, 1.92881310694051899546e-01) (0, 1.06370109940661566883e-01) (1, 5.81764900813154572923e-01) (2, 5.36116388534340182481e-01) (3, 3.35522925933181392910e-01) (4, 6.24504394074324231667e-01) (5, 7.45724816125093226127e-01) (6, 5.31400242936460598386e-01) (7, 5.91181786060538505545e-01) (8, 5.82389911962570172577e-01) (9, 6.30373687836330098833e+00) (10, 5.57194304436331888652e-01) (0, -3.02606658356258440001e-01) (1, -2.34802562151706195603e-01) (2, -2.59476975445125934705e-01) (3, -1.86637533642296155056e-01) (4, -2.17096841457398576081e-01) (5, -3.70890589339652354539e-01) (6, -3.52772339129430234639e-01) (7, -2.75747911189281103006e-01) (8, -3.03538670085172157531e-01) (9, -2.17871134763587104288e-01) (10, -1.55040591539872291138e-01) (0, 2.65261744658569054156e-01) (1, 3.85773312592165074086e-01) (2, 1.28453872253802253711e-01) (3, 3.84963949509633640567e-01) (4, 1.10840322046522749000e-01) (5, 1.74750720097140183062e-01) (6, 2.36867821934695604869e-01) (7, 1.39858369839788693190e-01) (8, 2.97205671560191730940e-01) (9, 2.13360478724073904244e-01) (10, 1.60385462574212128706e-01) (0, 1.30348842573069834128e-01) (1, 2.68609996667866390840e-01) (2, 2.41034339316681389676e-01) (3, 2.67994853203193328373e-01) (4, 1.16447048042295955850e-01) (5, 1.32653804098611521889e-01) (6, 2.55685568786651773454e-01) (7, 2.57561945346158394088e-01) (8, 1.45894103004089892295e-01) (9, 2.34631535075626285192e-01) (10, 1.91729408730828193574e-01) (0, 5.59392992235100527942e-01) (1, 5.95428010263694851290e-01) (2, 5.75801460346560656234e-01) (3, 4.77048751007749516351e-01) (4, 5.38187762473256503526e-01) (5, 5.85797608354337140391e-01) (6, 4.12826803593098090595e-01) (7, 7.09947334828109566374e-01) (8, 6.60003544220550963928e-01) (9, 5.51113520182033078676e-01) (10, 5.60325794985886194155e-01) (0, 7.46377496782541616227e-01) (1, 5.62045876897768859060e-01) (2, 6.93643166939061694976e-01) (3, 4.93421960570017137382e-01) (4, 5.84784365683784779222e-01) (5, 5.92735163827466604580e-01) (6, 5.09748519118370491121e-01) (7, 6.66238208457332281576e-01) (8, 5.62896039423346317143e-01) (9, 5.14690301833798380393e-01) (10, 5.99899410013903344741e-01) (0, 8.84900939697684130181e-01) (1, 8.26691484776170049109e-01) (2, 5.93889696816511269972e-01) (3, 2.27479251048620190190e+00) (4, 6.71399112330076541788e-01) (5, 8.19291165133579579738e-01) (6, 5.57040393133119815516e-01) (7, 6.02747245319186553125e-01) (8, 4.81121273528291815147e-01) (9, 4.99921446848840544952e-01) (10, 7.49695736815864988145e-01) (0, 6.90703902253141044376e-01) (1, 4.01414760931132541533e-01) (2, 4.13354820286418289665e-01) (3, 2.06527287697237547093e+01) (4, 3.25316330964483868549e-01) (5, 6.08612412143927472563e-01) (6, 2.74708147154884840813e-01) (7, 3.73942859746316524916e-01) (8, 3.38110065340514687193e-01) (9, -3.63890442830288707299e+00) (10, 4.87177673295742907911e-01) (0, 6.71092643207366279512e-01) (1, 5.79535285943873046399e-01) (2, 5.48691998065510389004e-01) (3, 5.11365067895704239476e-01) (4, 5.64185955589329157789e-01) (5, 7.22981917835018417229e-01) (6, 5.85785056811161441992e-01) (7, 5.39228524938991982118e-01) (8, 5.61343288003761875515e-01) (9, 5.43386990683483284137e-01) (10, 5.96699223082511887029e-01) (0, 6.93544264407747634849e-01) (1, 4.74179888152473860696e-01) (2, 6.71165899109810948353e-01) (3, 5.16248555900294281429e-01) (4, 6.87603096120490087095e-01) (5, 7.16764522314197738417e-01) (6, 5.92943047810505552420e-01) (7, 6.43706379575981979535e-01) (8, 6.47397114704612586245e-01) (9, 4.37006374303548272842e-01) (10, 5.26100996265250864248e-01) (0, 2.26270282465997701893e-01) (1, 3.75249094710625286098e-01) (2, 2.19173182948176115126e-01) (3, 3.76795376257779757179e-01) (4, 1.40454848435215662317e-01) (5, 2.18939786017434245835e-01) (6, 2.19612382709662129487e-01) (7, 1.79857162517075980235e-01) (8, 2.20471294876924850392e-01) (9, 1.74163939645597620753e-01) (10, 1.99368453575423487667e-01) (0, -1.30068837546847865250e-01) (1, 7.86369111818356614219e-03) (2, -1.36754362285055358628e-01) (3, -2.41642165864622837645e-02) (4, -1.01194885309297377685e-01) (5, -1.40000749271504937310e-01) (6, -1.94339996464323566672e-01) (7, -1.47865876708744597989e-01) (8, -1.08933488935849781543e-01) (9, -9.13915796997302222471e-03) (10, -3.80629823601480662965e-02) (0, 4.82158469137914880154e-01) (1, 4.05548705045392532398e-01) (2, 5.77138269758586952562e-01) (3, 4.64229058368296532144e-01) (4, 4.78877593504595966412e-01) (5, 4.95083195058895031426e-01) (6, 5.16297068496786470959e-01) (7, 5.73762033202745991289e-01) (8, 5.49301011434703334579e-01) (9, 4.12352979605922154160e-01) (10, 4.01594875957530184074e-01) (0, 1.84849386144766480999e-01) (1, 2.41765752938383871040e-01) (2, 2.50354661670076139579e-01) (3, 2.82707756497836970588e-01) (4, 2.49169612997651640507e-01) (5, 1.35476536610670494909e-01) (6, 2.79766766425955049069e-01) (7, 2.47019937221427399177e-01) (8, 2.45483902962341654641e-01) (9, 2.59887096397345918053e-01) (10, 2.52929011791245716978e-01) (11, 4.43412413316426889942e-01) (12, 2.33342774900666016791e-01) (13, -2.07980714043967465643e-02) (14, -5.97146196173236193383e-02) (15, 9.27263701716468102809e-01) (16, 4.30001275670064297962e-01) (17, -1.26249403585572933517e-01) (18, 4.92287217743947513870e-01) (19, 6.18228280939552510276e-01) (20, 5.62055577577944998069e-01) (21, -1.25925259757870139365e-01) (22, -1.64731915851691917974e-01) (23, -1.90429403261768758274e-03) (24, 1.93449183567387210381e-02) (25, -1.32203533623919733397e-01) (26, -1.80035387470195235027e-01) (27, 5.11125875080174263410e-01) (28, 3.37155244937583642439e-01) (29, -8.66394782590204415307e-01) (30, 4.21025199223957535821e-01) (31, -5.46647264192401480948e-03) (11, 5.86368075005252453735e-01) (12, 3.93116833366298143448e-03) (13, -1.13184384077203076258e-01) (14, -7.74189815338785641829e-02) (15, 5.59433816798263539027e-01) (16, 4.47621018605947829094e-01) (17, 6.60184526867134691130e-02) (18, 4.37540206126006692156e-01) (19, 7.12145441118586353113e-01) (20, 5.36946767969304072921e-01) (21, 2.78817715229328182136e-02) (22, 2.14122695094897536050e-02) (23, -3.98488450891154422084e-01) (24, -3.66409175210709370241e-01) (25, 3.72541666077192690221e-02) (26, -6.69304509783559958835e-02) (27, 4.86384189884414563920e-01) (28, 4.84839818533152999702e-01) (29, -2.08884234694161863288e+00) (30, 6.53511067555031743836e-01) (31, 4.46777780570680321803e-02) (11, -3.48062347799503624124e-01) (12, 7.25364183937962203608e-01) (13, 5.08795372897737463447e-01) (14, 4.17201532443275568962e-01) (15, -8.92523201942632161965e-03) (16, -2.05627801233631946065e-01) (17, 4.60087595135829974247e-01) (18, 1.29541249075235298527e+00) (19, -1.47231755712455086860e-01) (20, -2.94156605146734140277e-01) (21, 3.25881165196696576114e-01) (22, 3.92912804995922515516e-01) (23, 4.33899981608017681900e-01) (24, 4.68938576157690023560e-01) (25, 3.93428095808481925744e-01) (26, 4.08355277834998087183e-01) (27, -3.07323199140919323114e-01) (28, 1.20378420264611274426e+00) (29, -1.34560151005514161415e-01) (30, -2.17341103009940750379e-01) (31, 5.55855915952080059661e-01) (11, 8.66386379083306290561e-01) (12, -3.57032837054336998905e-02) (13, 8.48412514826174662952e-02) (14, 2.18892298032011323183e-01) (15, 6.38167918792361232860e-01) (16, 8.80592160697166503880e-01) (17, 3.70774554900143937797e-01) (18, 1.59112040496920070787e-01) (19, 8.60287358759089126892e-01) (20, 8.40797794792312980228e-01) (21, 2.01214427151252567283e-01) (22, 2.85082275391075889992e-01) (23, 9.86098506072511232778e-02) (24, 2.33757985891165198655e-01) (25, 2.86980491607536303267e-01) (26, 2.22952735999723650195e-01) (27, 9.66143090348663524658e-01) (28, 2.59980536816683191481e-02) (29, 1.19445205743022708766e+00) (30, 8.72615061563466465344e-01) (31, 1.68301467744195382137e-01) (11, 6.12192897263875601688e-01) (12, 7.08886354495382592367e-02) (13, 3.47745538652230110066e-02) (14, -3.15862715337779792479e-02) (15, 9.83330031110096536295e-01) (16, 5.51823441152104465779e-01) (17, 4.48366895610787571241e-03) (18, 3.94815952283535442913e-01) (19, 6.63080221327189134328e-01) (20, 5.50916437368143330211e-01) (21, -7.79757128081097570377e-03) (22, 1.04657402530266660512e-01) (23, -3.84424138701900744430e-02) (24, -9.45760951295154389529e-02) (25, 6.88998708368093321086e-02) (26, 4.33869691212812533254e-02) (27, 5.47816102669301141503e-01) (28, 2.93641578205697695303e-01) (29, -8.46657025906018434469e-01) (30, 5.74967952981563668047e-01) (31, 1.10477554429576782513e-01) (11, 5.54450113418512025021e-01) (12, 2.14069452456059849954e-01) (13, 9.02362336943954811141e-03) (14, -1.91251507382646651623e-01) (15, 1.09134288079805030769e+00) (16, 2.96984501518506915918e-01) (17, -1.68557024711563391284e-01) (18, 4.65844727947821724001e-01) (19, 5.78578543065156880587e-01) (20, 5.42154624127781703535e-01) (21, -1.44179704032987715534e-01) (22, -2.15289497567825088842e-01) (23, -2.18973188583236437477e-02) (24, -3.27890008805670554737e-02) (25, -1.36673454746558925565e-01) (26, -2.26286799172433883420e-01) (27, 5.97740550387531044407e-01) (28, 3.85072645113934186600e-01) (29, -7.86810137844505264049e-01) (30, 4.59050033786569555705e-01) (31, 1.91258779543995935390e-02) (11, -3.51232162961921334787e-01) (12, 5.99988481943233953331e-01) (13, 4.88020619499704211286e-01) (14, 4.47950874671886600797e-01) (15, 1.22769978506029969756e-01) (16, -2.89119576949427636858e-01) (17, 3.37226752873459600934e-01) (18, 1.17351060453085920265e+00) (19, -1.63203642424590927851e-01) (20, -2.37271385737965689877e-01) (21, 4.18597010099858946042e-01) (22, 3.74485356494075216638e-01) (23, 4.00785762388865762773e-01) (24, 3.59733513173106034255e-01) (25, 3.55724029883389136764e-01) (26, 3.03645665045783830216e-01) (27, -3.44452743175394315855e-01) (28, 1.23340005206127623083e+00) (29, 2.06282988797240357526e-01) (30, -3.97661049343686179292e-01) (31, 5.17572310163940674244e-01) (11, 4.34531064009792467040e-01) (12, 9.00821448402566282709e-01) (13, 8.47097928574509051458e-01) (14, 1.18038908841885148426e+00) (15, 3.22491020624787905202e-01) (16, 5.96367037611547523568e-01) (17, 1.26668596515109666001e+00) (18, 3.31602544296358658915e-01) (19, 4.08816710192575205607e-01) (20, 3.62663219501448697013e-01) (21, 1.12566894123799365879e+00) (22, 1.28326750642146847348e+00) (23, 1.01984844360614279601e+00) (24, 1.05209359797214174748e+00) (25, 1.22072493044539798213e+00) (26, 1.30188896345480076278e+00) (27, 4.39089202101824671587e-01) (28, 3.85975838836162543632e-01) (29, 3.60605248922214238760e+00) (30, 5.01587996822475346015e-01) (31, 1.07582626543580439638e+00) (11, 3.27838666455923688492e-01) (12, -8.78282274740276903968e-03) (13, -9.75273903591982183059e-02) (14, -2.45946042248624319182e-01) (15, 6.50242045015484992909e-01) (16, 2.58401237934019478715e-01) (17, -1.89350838735320020634e-01) (18, 5.20686475524014258376e-01) (19, 3.79659919934563883093e-01) (20, 4.23758746010437503671e-01) (21, -2.88708746229767887481e-01) (22, -3.11700519763797423423e-01) (23, 1.67675263906403526626e-01) (24, 1.56512706275724639005e-01) (25, -3.62304360162124583500e-01) (26, -2.97830340325373865706e-01) (27, 3.54994810826790574421e-01) (28, 4.20650004290024193132e-01) (29, 1.56759082134704397227e+00) (30, 4.38140210984470479527e-01) (31, -2.48893401768964461773e-01) (11, 1.11692790964183807922e+00) (12, 4.06164770364016547433e-01) (13, 3.98842804974761711012e-01) (14, 5.41568608737434731282e-01) (15, 1.56531979513984453867e+00) (16, 1.17885361447812875291e+00) (17, 6.28881535545501413331e-01) (18, -1.05263886244748583465e-01) (19, 9.61476735727389009156e-01) (20, 1.14246685049618190710e+00) (21, 6.29838629772461966461e-01) (22, 5.35476760500957160716e-01) (23, 5.53689600648212154610e-01) (24, 6.27581653728262356395e-01) (25, 5.31559683848062736189e-01) (26, 6.29286984573713792379e-01) (27, 9.95669203696759819167e-01) (28, -5.06731454298204875286e-02) (29, 3.13217984105449387400e+00) (30, 1.11206262522247434354e+00) (31, 4.34614054368118618576e-01) (11, -3.01205265279800127320e-01) (12, 7.16159562677727401514e-01) (13, 6.42373147285263512707e-01) (14, 3.67684832608114298136e-01) (15, 1.88820998416687202415e-01) (16, -3.29123599309136649627e-01) (17, 4.09055382065107053791e-01) (18, 1.34590336990586001420e+00) (19, -1.54768897306181985041e-01) (20, -3.33254298492626777062e-01) (21, 4.01948823832189383598e-01) (22, 4.51715212862973447550e-01) (23, 4.48333645800397806447e-01) (24, 5.24414493605925513542e-01) (25, 4.39353610432683561182e-01) (26, 2.90210378827764570175e-01) (27, -3.20771344151892345842e-01) (28, 1.22908580059481487012e+00) (29, 3.46080919183441704234e+00) (30, -3.51038010614442896884e-01) (31, 5.68589833275441103311e-01) (11, 4.15505724674802956464e-01) (12, 8.17429763061770398025e-01) (13, 8.06842145446195369018e-01) (14, 1.29600212536888115267e+00) (15, 3.44767510682005950962e-01) (16, 5.71590136603453258246e-01) (17, 1.25409206592752386911e+00) (18, 3.06745359632103364866e-01) (19, 4.67042268817162320449e-01) (20, 4.47266743686968726301e-01) (21, 1.13942905362628432719e+00) (22, 1.24909854236381678838e+00) (23, 1.05128821029420005395e+00) (24, 1.17341563858239039675e+00) (25, 1.23916458556285835613e+00) (26, 1.28632167997525859171e+00) (27, 4.22029500441334526339e-01) (28, 3.87046657103752578255e-01) (29, 3.58912812540418713070e+00) (30, 4.84267781101997030202e-01) (31, 1.04757449681807179864e+00) (32, 4.29395152890300613180e-01) (33, 6.17936432487350084664e-01) (34, 3.00226477347361409009e-01) (35, 2.09049289231248800608e-03) (36, 2.00982685973459876405e-02) (37, 5.01350502527652008844e-01) (38, 1.46191160438297773627e-01) (39, -2.07960675794744392908e-01) (40, 1.64208435932578139527e-01) (41, -6.44340851941311854034e-02) (42, 1.74743657947596164881e-01) (43, -2.47404659459231068830e-01) (44, 4.97719365727185836246e-01) 
